tree
version=v4
num_class=1
num_tree_per_iteration=1
label_index=0
max_feature_idx=132
objective=binary sigmoid:1
feature_names=mean__hero_acted mean__num_players_norm mean__hero_start_stack_bb_norm mean__streets_reached_norm mean__hero_reached_flop mean__hero_reached_turn mean__hero_reached_river mean__hero_reached_showdown mean__showdown_flag mean__hero_fold_ratio mean__hero_check_ratio mean__hero_call_ratio mean__hero_bet_ratio mean__hero_raise_ratio mean__hero_action_count_norm mean__hero_aggression_factor mean__hero_aggression_freq mean__hero_vpip mean__hero_pfr mean__hero_folded_preflop mean__hero_limped mean__hero_bet_bb_mean_norm mean__hero_bet_bb_std_norm mean__hero_bet_bb_min_norm mean__hero_bet_bb_max_norm mean__hero_has_allin_like mean__hero_pot_before_mean_norm mean__hero_pot_growth_mean mean__hero_first_to_act mean__hero_last_to_act mean__hero_action_entropy mean__hero_action_run_max_share mean__hero_bet_bucket_entropy std__hero_acted std__num_players_norm std__hero_start_stack_bb_norm std__streets_reached_norm std__hero_reached_flop std__hero_reached_turn std__hero_reached_river std__hero_reached_showdown std__showdown_flag std__hero_fold_ratio std__hero_check_ratio std__hero_call_ratio std__hero_bet_ratio std__hero_raise_ratio std__hero_action_count_norm std__hero_aggression_factor std__hero_aggression_freq std__hero_vpip std__hero_pfr std__hero_folded_preflop std__hero_limped std__hero_bet_bb_mean_norm std__hero_bet_bb_std_norm std__hero_bet_bb_min_norm std__hero_bet_bb_max_norm std__hero_has_allin_like std__hero_pot_before_mean_norm std__hero_pot_growth_mean std__hero_first_to_act std__hero_last_to_act std__hero_action_entropy std__hero_action_run_max_share std__hero_bet_bucket_entropy min__hero_acted min__num_players_norm min__hero_start_stack_bb_norm min__streets_reached_norm min__hero_reached_flop min__hero_reached_turn min__hero_reached_river min__hero_reached_showdown min__showdown_flag min__hero_fold_ratio min__hero_check_ratio min__hero_call_ratio min__hero_bet_ratio min__hero_raise_ratio min__hero_action_count_norm min__hero_aggression_factor min__hero_aggression_freq min__hero_vpip min__hero_pfr min__hero_folded_preflop min__hero_limped min__hero_bet_bb_mean_norm min__hero_bet_bb_std_norm min__hero_bet_bb_min_norm min__hero_bet_bb_max_norm min__hero_has_allin_like min__hero_pot_before_mean_norm min__hero_pot_growth_mean min__hero_first_to_act min__hero_last_to_act min__hero_action_entropy min__hero_action_run_max_share min__hero_bet_bucket_entropy max__hero_acted max__num_players_norm max__hero_start_stack_bb_norm max__streets_reached_norm max__hero_reached_flop max__hero_reached_turn max__hero_reached_river max__hero_reached_showdown max__showdown_flag max__hero_fold_ratio max__hero_check_ratio max__hero_call_ratio max__hero_bet_ratio max__hero_raise_ratio max__hero_action_count_norm max__hero_aggression_factor max__hero_aggression_freq max__hero_vpip max__hero_pfr max__hero_folded_preflop max__hero_limped max__hero_bet_bb_mean_norm max__hero_bet_bb_std_norm max__hero_bet_bb_min_norm max__hero_bet_bb_max_norm max__hero_has_allin_like max__hero_pot_before_mean_norm max__hero_pot_growth_mean max__hero_first_to_act max__hero_last_to_act max__hero_action_entropy max__hero_action_run_max_share max__hero_bet_bucket_entropy n_hands_norm
feature_infos=[0.76666665077209473:1] [0.45185193419456482:0.6518518328666687] [0.80582505464553833:0.95389437675476074] [0.087499998509883881:0.51666665077209473] [0:0.5] [0:0.30000001192092896] [0:0.30000001192092896] [0:0.46666666865348816] none [0.393888920545578:0.93333333730697632] [0:0.17000000178813934] [0:0.17888887226581573] [0:0.13124999403953552] [0:0.36944445967674255] [0.072222225368022919:0.18888892233371735] [0:0.24444445967674255] [0:0.42777776718139648] [0.066666670143604279:0.60000002384185791] [0:0.47499999403953552] [0.3333333432674408:0.93333333730697632] [0:0.43333333730697632] [0:0.1912936270236969] [0:0.054994385689496994] [0:0.16872499883174896] [0:0.2209000289440155] [0:0.23333333432674408] [0.080439060926437378:0.33471778035163879] [0.0053973686881363392:0.1373196542263031] [0.02500000037252903:0.46666666865348816] [0:0.46666666865348816] [0.027042603120207787:0.54055428504943848] [0.64583337306976318:0.99166667461395264] none [0:0.4229525625705719] [0.037770513445138931:0.21914534270763397] [0.010890367440879345:0.26963058114051819] [0.088167108595371246:0.4898979663848877] [0:0.5] [0:0.45825758576393127] [0:0.45825755596160889] [0:0.4988875687122345] none [0.24944385886192322:0.4988875687122345] [0:0.34046125411987305] [0:0.2451806515455246] [0:0.21650634706020355] [0:0.45154061913490295] [0.026205500587821007:0.18267981708049774] [0:0.32544684410095215] [0:0.4593338668346405] [0.24944379925727844:0.5] [0:0.4993746280670166] [0.24944379925727844:0.5] [0:0.49553570151329041] [0:0.32618823647499084] [0:0.11972994357347488] [0:0.32379874587059021] [0:0.35435020923614502] [0:0.42295259237289429] [0.064267516136169434:0.31569439172744751] [0.0063171116635203362:0.25368911027908325] [0.15612499415874481:0.4988875687122345] [0:0.4988875687122345] [0.14562883973121643:0.5] [0.044876363128423691:0.43359145522117615] none [0:1] [0.2222222238779068:0.55555558204650879] [0.0074000000022351742:0.92743998765945435] none none none none none none none none none none none [0:0.083333335816860199] none none none none none none none none none none none [0:0.064560003578662872] none none none none [0:0.75] none none none none [0.25:1] none [0:1] [0:1] [0:1] none none [0:1] [0:1] [0:0.75] [0:1] [0.1666666716337204:0.66666668653488159] [0:1] [0:1] none none none [0:1] [0:0.94499999284744263] [0:0.43057501316070557] [0:0.94499999284744263] [0:0.94499999284744263] [0:1] [0.23436799645423889:0.95999997854232788] [0.025767844170331955:1] none none [0.81127810478210449:1] none none [0.5:0.66666668653488159]
tree_sizes=622 985 984 990 882 986 982 776 887 982 778 889 887 778 885 986 988 889 987 885 885 885 991 983 1096 783 989 1203 1099 781 1091 1089 991 887 888 887 1095 1090 1089 1089 894 783 990 1195 1199 987 887 1090 889 683 890 1410 1096 994 1620 1099 893 889 785 1093 1098 787 987 1097 1088 1099 989 888 987 1406 1620 1723 1208 891 1520 785 1413 1203 1304 883 887 1725 1733 989 894 1622 1095 1512 1205 1201 1520 889 886 1419 1096 1514 1411 1521 1714 892 1306 1196 1518 1629 989 982 1206 1104 895 1088 1509 1632 1100 1202 1399 1314 1204 1737 788 1423 1208 1519 1195 785 1516 996 1414 1519 1410 995 784 1631 1202 1405 1315 1620 1410 1619 1301 1728 680 679 1736 991 1301 995 1204 1734 1301 1407 1093 1521 1089 1094 894 1734 1197 785 1096 1302 1101 1310 999 1626 1514 995 1414 1626 1210 1200 1101 1098 1409 1523 1095

Tree=0
num_leaves=5
num_cat=0
split_feature=36 7 34 63
split_gain=87.7662 86.7036 25.3797 17.246
threshold=0.42130748927593237 0.029166667722165588 0.19445277750492099 0.277793899178505
decision_type=2 2 2 2
left_child=1 -1 3 -3
right_child=-2 2 -4 -5
leaf_value=0.052857142857142853 0.056086956521739131 0.027567567567567567 0.050000000000000003 -0.014549999999999999
leaf_weight=20 22 8.2499999999999982 4.9999999999999991 199
leaf_count=80 88 33 20 796
internal_value=0.000176298 -0.00533762 -0.0110434 -0.0127491
internal_weight=254.25 232.25 212.25 207.25
internal_count=1017 929 849 829
is_linear=0
shrinkage=0.03


Tree=1
num_leaves=8
num_cat=0
split_feature=36 36 63 36 57 54 3
split_gain=86.3624 81.6952 22.7251 19.4792 18.3519 7.91803 1.95374
threshold=0.41340368986129766 0.24886424094438556 0.36398334801197058 0.36986057460308081 0.27835039794445043 0.15858178585767749 0.36041666567325598
decision_type=2 2 2 2 2 2 2
left_child=1 5 3 -3 -4 -1 -2
right_child=6 2 4 -5 -6 -7 -8
leaf_value=0.054451156289621654 0.055805646086388133 -0.010013151896801088 -0.022388562504294468 0.026318164812789403 0.014445523770726752 0.0097763117336183876 0.028875696203905128
leaf_weight=18.240968793630604 19.486878171563152 34.495961621403694 129.49061989784241 20.247973650693893 12.74873501062393 4.9986062198877326 6.9954143017530432
leaf_count=73 78 138 518 81 51 20 28
internal_value=-0.00015589 -0.00638619 -0.0127238 0.00365567 -0.0190094 0.0456418 0.0500015
internal_weight=246.705 220.223 196.983 54.7439 142.239 23.2396 26.4823
internal_count=987 881 788 219 569 93 106
is_linear=0
shrinkage=0.03


Tree=2
num_leaves=8
num_cat=0
split_feature=36 102 40 45 63 44 10
split_gain=83.3652 76.2693 18.3717 20.5371 15.088 5.24898 3.09139
threshold=0.41340368986129766 0.87500000000000011 0.21794500201940539 0.098952863365411772 0.40784826874732977 0.11902380362153055 0.079315476119518294
decision_type=2 2 2 2 2 2 2
left_child=1 5 4 -4 -3 -1 -2
right_child=6 2 3 -5 -6 -7 -8
leaf_value=0.014245676962522038 0.054392433221374749 -0.018507722621555974 -0.002320045597963566 -0.023359957612065285 0.041206126161581064 0.052858878403131901 0.025276400996633374
leaf_weight=4.9951887726783779 19.450218558311466 5.4971793144941321 64.482181996107101 118.71726928651333 8.7428752928972226 16.468074485659599 7.2367858141660681
leaf_count=20 78 22 258 475 35 66 29
internal_value=-0.00137075 -0.00754218 -0.0134413 -0.0160072 0.0184526 0.0449066 0.0476951
internal_weight=245.59 218.903 197.44 183.199 14.2401 21.4633 26.687
internal_count=983 876 790 733 57 86 107
is_linear=0
shrinkage=0.03


Tree=3
num_leaves=8
num_cat=0
split_feature=36 36 31 36 57 58 59
split_gain=84.2323 75.7282 28.3737 23.8997 14.6415 7.53272 0.939179
threshold=0.41340368986129766 0.24886424094438556 0.86944445967674266 0.36199373006820684 0.2808613926172257 0.21794494241476062 0.17796561866998675
decision_type=2 2 2 2 2 2 2
left_child=1 5 4 -4 -3 -1 -2
right_child=6 2 3 -5 -6 -7 -8
leaf_value=0.052145839406101388 0.026604150631470789 -0.023636292546705458 -0.010846252964829028 0.024015518737131113 0.011333982172257616 0.0087859308510189853 0.052303642308193656
leaf_weight=18.419576421380047 4.9737694114446667 119.66761068999767 44.478811666369438 27.990563333034515 11.247156172990797 4.9918221533298484 22.132061719894409
leaf_count=74 20 479 178 112 45 20 89
internal_value=-0.000299195 -0.00634377 -0.0122826 0.00276236 -0.0205688 0.0436392 0.0487023
internal_weight=253.901 226.796 203.384 72.4694 130.915 23.4114 27.1058
internal_count=1017 908 814 290 524 94 109
is_linear=0
shrinkage=0.03


Tree=4
num_leaves=7
num_cat=0
split_feature=36 102 34 36 25 36
split_gain=79.9228 70.0697 18.1145 15.0589 1.72146 0.710382
threshold=0.41340368986129766 0.87500000000000011 0.19125244766473773 0.25093132257461553 0.041666667908430106 0.42193286120891577
decision_type=2 2 2 2 2 2
left_child=1 4 3 -3 -1 -2
right_child=5 2 -4 -5 -6 -7
leaf_value=0.052023739495386433 0.027783750829298473 0.023792766967000445 0.037795523290795378 -0.013336571824723554 0.025398179283971943 0.052204986960986542
leaf_weight=15.37170520424843 5.2222074419260052 9.4713263809680921 5.9961432069540015 189.5531602203846 6.2382193207740775 22.518017083406448
leaf_count=62 21 38 24 759 25 91
internal_value=0.00159935 -0.00435884 -0.00984252 -0.0114595 0.0458009 0.0487343
internal_weight=254.371 226.631 205.021 199.024 21.6099 27.7402
internal_count=1020 908 821 797 87 112
is_linear=0
shrinkage=0.03


Tree=5
num_leaves=8
num_cat=0
split_feature=36 36 30 36 40 58 36
split_gain=68.8922 65.5789 18.435 27.8802 11.7363 7.05343 1.29633
threshold=0.41757954657077795 0.24886424094438556 0.18509939312934878 0.36986057460308081 0.23369439691305163 0.17950544506311419 0.42675288021564489
decision_type=2 2 2 2 2 2 2
left_child=1 5 3 -3 -4 -1 -2
right_child=6 2 4 -5 -6 -7 -8
leaf_value=0.049692093540405789 0.025974161842182208 -0.011954569333636707 0.016249833163278726 0.027808463525360899 -0.02023266862712398 0.0077601848055374525 0.050539102399969595
leaf_weight=17.772497013211254 6.1807206422090557 47.948331117630005 7.7451367676258078 22.485444933176041 125.0235982388258 4.9842753857374182 18.691844671964645
leaf_count=72 25 192 31 90 501 20 76
internal_value=-0.000709774 -0.00599431 -0.011458 0.000951062 -0.0179989 0.0412212 0.0456747
internal_weight=250.832 225.959 203.203 70.4338 132.769 22.7568 24.8726
internal_count=1007 906 814 282 532 92 101
is_linear=0
shrinkage=0.03


Tree=6
num_leaves=8
num_cat=0
split_feature=40 40 37 34 102 39 3
split_gain=51.9433 38.8866 18.7776 12.1021 12.177 7.28723 4.44388
threshold=0.15612498670816424 0.42295251786708837 0.42295260727405554 0.18431255966424945 0.87500000000000011 0.33993463218212133 0.29270832240581518
decision_type=2 2 2 2 2 2 2
left_child=-1 3 6 4 -2 -4 -3
right_child=1 2 5 -5 -6 -7 -8
leaf_value=0.049033012499223434 0.023521556748126889 0.048175886382459003 -0.034392323042815323 0.023162637898325875 -0.01304134985394834 0.011083876204553032 0.022922698168964493
leaf_weight=17.198059052228928 7.7164405882358542 11.104268774390219 5.2280687093734723 8.735282361507414 169.86056897044182 5.7198494672775269 21.69855809211731
leaf_count=70 31 45 21 35 681 23 88
internal_value=0.000234844 -0.00360942 0.0215355 -0.00959752 -0.0113297 -0.0116937 0.0326436
internal_weight=247.261 230.063 43.7507 186.312 177.577 10.9479 32.8028
internal_count=994 924 177 747 712 44 133
is_linear=0
shrinkage=0.03


Tree=7
num_leaves=6
num_cat=0
split_feature=36 102 59 40 57
split_gain=52.996 51.3523 17.5755 12.9546 2.39717
threshold=0.42193286120891577 0.87500000000000011 0.24377653002738955 0.21794500201940539 0.17170416563749316
decision_type=2 2 2 2 2
left_child=1 4 3 -3 -1
right_child=-2 2 -4 -5 -6
leaf_value=0.048815772740826921 0.048797397448370486 0.017590414607313511 0.041067586655047388 -0.01130277903576213 0.019269219010865445
leaf_weight=14.132850304245951 17.99274805188179 14.184611663222311 5.4759709537029257 190.20877601206303 5.230200543999671
leaf_count=58 74 57 22 763 21
internal_value=0.000634243 -0.00334167 -0.00772106 -0.00922175 0.0421731
internal_weight=247.225 229.232 209.869 204.393 19.3631
internal_count=995 921 842 820 79
is_linear=0
shrinkage=0.03


Tree=8
num_leaves=7
num_cat=0
split_feature=36 36 54 59 45 57
split_gain=55.2996 56.6536 19.468 18.8864 23.5912 11.9042
threshold=0.42130748927593237 0.25603820383548742 0.16812614351511004 0.21127918362617495 0.050965212285518653 0.25256739556789404
decision_type=2 2 2 2 2 2
left_child=1 2 -1 4 -3 -5
right_child=-2 3 -4 5 -6 -7
leaf_value=0.046908945882342505 0.045679348311738179 0.019697204960543956 -0.012789491010387706 -0.0033872045042540799 -0.017834290565066083 0.029822112168315592
leaf_weight=22.902845457196239 21.240893796086311 15.96790838241577 5.7239085584878913 26.410338714718819 146.00329101085663 14.207800850272177
leaf_count=94 88 64 23 106 586 57
internal_value=0.000490879 -0.00383924 0.0349435 -0.00946412 -0.0140361 0.00866652
internal_weight=252.457 231.216 28.6268 202.589 161.971 40.6181
internal_count=1018 930 117 813 650 163
is_linear=0
shrinkage=0.03


Tree=9
num_leaves=8
num_cat=0
split_feature=36 7 34 25 45 37 10
split_gain=50.502 49.8602 20.4921 18.9229 11.8812 4.1739 2.35964
threshold=0.41757954657077795 0.058333335444331176 0.18354833126068118 0.058333335444331176 0.053069375455379493 0.37267793715000158 0.079315476119518294
decision_type=2 2 2 2 2 2 2
left_child=1 3 4 5 -3 -1 -2
right_child=6 2 -4 -5 -6 -7 -8
leaf_value=0.017561300710437672 0.047381206432940588 0.010996985230220961 0.031726424601030478 -0.017783998706853422 -0.013658239479381851 0.04885224391073667 0.018669968912691987
leaf_weight=6.6407376974821153 18.683327317237858 18.964928925037384 9.7244790792465192 5.2349624186754218 162.30086693167686 19.402735114097595 5.0978300869464865
leaf_count=27 78 76 39 21 652 80 21
internal_value=0.00160245 -0.00291389 -0.00870148 0.0316006 -0.0110325 0.0418179 0.0422283
internal_weight=246.05 222.269 190.99 31.2784 181.266 26.0435 23.7812
internal_count=994 895 767 128 728 107 99
is_linear=0
shrinkage=0.03


Tree=10
num_leaves=6
num_cat=0
split_feature=36 40 34 102 36
split_gain=62.8194 56.9334 15.5931 13.2449 1.46601
threshold=0.41473495960235601 0.15612498670816424 0.19353368133306506 0.87500000000000011 0.42295257747173315
decision_type=2 2 2 2 2
left_child=1 -1 3 -3 -2
right_child=4 2 -4 -5 -6
leaf_value=0.045477872135187961 0.020799218930766902 0.02556569634045908 0.034708073947563235 -0.014343581839249064 0.045282614231982161
leaf_weight=16.24006599187851 5.3646013140678432 6.9032884091138831 5.4791005551815024 188.37956519424915 21.081023156642914
leaf_count=68 22 28 22 757 89
internal_value=-0.00152648 -0.00690548 -0.0113473 -0.0128097 0.0412549
internal_weight=243.448 217.002 200.762 195.283 26.4456
internal_count=986 875 807 785 111
is_linear=0
shrinkage=0.03


Tree=11
num_leaves=7
num_cat=0
split_feature=40 40 37 102 31 44
split_gain=41.5278 28.4208 14.3595 12.9022 10.6921 5.39224
threshold=0.15612498670816424 0.42295251786708837 0.44221670925617224 0.87500000000000011 0.86881941556930553 0.13537584990262988
decision_type=2 2 2 2 2 2
left_child=-1 3 5 -2 -5 -3
right_child=1 2 -4 4 -6 -7
leaf_value=0.044805716722876129 0.027904037235439619 0.040128561766574471 -0.016529354333070134 -0.014300826807255331 0.0013112114737957651 0.015668346627596273
leaf_weight=17.007764503359795 7.8565037399530402 15.347570866346357 7.6839133203029624 121.46560908854008 58.031894072890282 20.529370203614235
leaf_count=72 32 64 31 489 233 85
internal_value=0.000923265 -0.00248811 0.0190704 -0.00757522 -0.00927412 0.0269365
internal_weight=247.923 230.915 43.5609 187.354 179.498 35.8769
internal_count=1006 934 180 754 722 149
is_linear=0
shrinkage=0.03


Tree=12
num_leaves=7
num_cat=0
split_feature=40 40 63 102 21 13
split_gain=36.0314 27.8339 18.7228 11.5837 10.0866 5.15485
threshold=0.15612498670816424 0.42295251786708837 0.43651649355888372 0.87500000000000011 0.11171039193868638 0.093263886868953719
decision_type=2 2 2 2 2 2
left_child=-1 3 5 -2 -5 -3
right_child=1 2 -4 4 -6 -7
leaf_value=0.042096876617990144 0.023444198067614115 0.0080355095148299527 -0.022796366284062074 -0.012787262399869669 0.012044364805227423 0.032079685573982337
leaf_weight=15.703067034482954 8.5864348858594877 12.32188558578491 8.1653192937374097 159.72600720822811 15.424344584345816 27.539117693901062
leaf_count=67 35 51 33 643 62 115
internal_value=-0.000466436 -0.00351877 0.0165959 -0.00883786 -0.0105445 0.0250257
internal_weight=247.466 231.763 48.0263 183.737 175.15 39.861
internal_count=1006 939 199 740 705 166
is_linear=0
shrinkage=0.03


Tree=13
num_leaves=6
num_cat=0
split_feature=36 102 58 7 57
split_gain=49.1145 38.3858 11.6837 12.6035 4.25
threshold=0.42295257747173315 0.87500000000000011 0.34850305318832403 0.058333335444331176 0.17170416563749316
decision_type=2 2 2 2 2
left_child=1 4 3 -3 -1
right_child=-2 2 -4 -5 -6
leaf_value=0.044479365357005939 0.043660637661795683 0.015975237115601126 0.024903901915314421 -0.010679160104783756 0.011790286775232165
leaf_weight=13.88414426147938 21.043629065155983 16.560101836919785 8.9540252089500409 187.83757027983665 5.9135808497667304
leaf_count=60 91 67 36 757 24
internal_value=0.000853407 -0.00318026 -0.00694282 -0.00845238 0.0357515
internal_weight=254.193 233.149 213.352 204.398 19.7977
internal_count=1035 944 860 824 84
is_linear=0
shrinkage=0.03


Tree=14
num_leaves=7
num_cat=0
split_feature=36 40 45 36 36 10
split_gain=43.7367 33.7356 14.936 16.3684 16.3334 3.54692
threshold=0.41340368986129766 0.15612498670816424 0.098952863365411772 0.26705688238143926 0.35316036641597753 0.079315476119518294
decision_type=2 2 2 2 2 2
left_child=1 -1 4 -4 -3 -2
right_child=5 2 3 -5 -6 -7
leaf_value=0.040301033395003939 0.044782751614485916 -0.0098672063106504618 0.01788322487899479 -0.015518095293108516 0.017523539288654213 0.015646263535162519
leaf_weight=14.461915567517279 19.077039256691936 35.774217084050179 14.042785689234732 115.9491034001112 41.07809154689312 6.4345759302377692
leaf_count=63 83 144 57 468 165 27
internal_value=0.00188543 -0.0024659 -0.00563555 -0.0118008 0.00481037 0.0383013
internal_weight=246.818 221.306 206.844 129.992 76.8523 25.5116
internal_count=1007 897 834 525 309 110
is_linear=0
shrinkage=0.03


Tree=15
num_leaves=8
num_cat=0
split_feature=36 36 54 45 25 36 43
split_gain=44.4604 39.6278 17.6236 16.9444 16.4783 12.0193 2.78647
threshold=0.41473495960235601 0.25603820383548742 0.16812614351511004 0.053069375455379493 0.14166667312383655 0.32301732897758489 0.1819085776805878
decision_type=2 2 2 2 2 2 2
left_child=1 2 -1 5 -5 -3 -2
right_child=6 3 -4 4 -6 -7 -8
leaf_value=0.041926314326758175 0.043609261924794016 -0.023266402578246668 -0.016337717087086284 -0.015309190484929784 0.024638923487385646 0.026424017731657572 0.017404386682452169
leaf_weight=19.797803431749347 16.781538829207424 4.9666955918073681 5.4356656521558753 165.95614321529865 8.9615408331155759 16.705039098858833 7.0748345553874961
leaf_count=86 74 20 22 670 36 67 30
internal_value=-0.00121088 -0.00545131 0.029231 -0.0100284 -0.0131341 0.0145121 0.0368508
internal_weight=245.679 221.823 25.2335 196.589 174.918 21.6717 23.8564
internal_count=1005 901 108 793 706 87 104
is_linear=0
shrinkage=0.03


Tree=16
num_leaves=8
num_cat=0
split_feature=36 40 57 45 59 57 12
split_gain=50.7607 45.8802 16.3139 16.8026 10.168 8.92768 3.72746
threshold=0.42130748927593237 0.21794500201940539 0.27835039794445043 0.098952863365411772 0.20662237703800204 0.19377315044403079 0.030000000260770324
decision_type=2 2 2 2 2 2 2
left_child=1 5 3 -3 -4 6 -1
right_child=-2 2 4 -5 -6 -7 -8
leaf_value=0.011686862928166996 0.043194179338539529 -0.0014532411720716157 -0.0087471038908657674 -0.020182704157063892 0.038458988268373899 -0.004332517619071349 0.044829075815809138
leaf_weight=4.7228874415159288 19.889686733484268 69.040974855422974 6.7043200731277457 114.50665329396725 8.4739755392074567 5.1992520689964286 17.038139835000038
leaf_count=20 89 278 27 464 34 21 74
internal_value=-0.00156173 -0.0056792 -0.0106949 -0.0131837 0.018356 0.0303522 0.0384656
internal_weight=245.576 225.686 198.726 183.548 15.1783 26.9603 21.761
internal_count=1007 918 803 742 61 115 94
is_linear=0
shrinkage=0.03


Tree=17
num_leaves=7
num_cat=0
split_feature=36 36 63 40 60 43
split_gain=41.8013 42.2472 19.0438 27.1661 13.9332 8.85837
threshold=0.42193286120891577 0.25495098531246191 0.36307337880134588 0.33993457257747656 0.10441805422306062 0.1052377186715603
decision_type=2 2 2 2 2 2
left_child=1 5 3 -3 -4 -1
right_child=-2 2 4 -5 -6 -7
leaf_value=-0.0023731484743584833 0.041119898511633425 -0.021154093465966868 -0.0032006180739978778 0.021777973932605093 -0.022078231191613978 0.042678222959903887
leaf_weight=4.7835462689399746 19.618358984589577 19.586454600095749 62.930633336305618 36.486814990639687 79.961219802498817 18.629738375544548
leaf_count=20 89 79 255 147 324 82
internal_value=0.000249645 -0.00352389 -0.0080574 0.00667386 -0.0138444 0.0337536
internal_weight=241.997 222.378 198.965 56.0733 142.892 23.4133
internal_count=996 907 805 226 579 102
is_linear=0
shrinkage=0.03


Tree=18
num_leaves=8
num_cat=0
split_feature=36 102 67 34 2 44 36
split_gain=48.1548 38.6882 15.3665 13.7397 7.19543 4.54266 1.23488
threshold=0.41340368986129766 0.87500000000000011 0.38888889551162725 0.19445277750492099 0.94828543066978466 0.12535437196493152 0.42193286120891577
decision_type=2 2 2 2 2 2 2
left_child=1 5 3 -3 -4 -1 -2
right_child=6 2 4 -5 -6 -7 -8
leaf_value=0.0097340142456757133 0.018804047175703272 -0.015151559480738401 0.011940474391362024 0.031652813183139776 -0.017481932468167986 0.042793721865022775 0.041935939834091898
leaf_weight=5.952383607625964 5.0642699897289303 153.20230436325073 36.799353182315826 4.9483385086059561 8.3944676369428617 13.887608081102369 19.733749970793724
leaf_count=25 21 621 149 20 34 63 91
internal_value=-0.000693712 -0.00515756 -0.00910724 -0.0134974 0.00621531 0.0338182 0.0381239
internal_weight=247.982 223.184 203.344 158.151 45.1938 19.84 24.798
internal_count=1024 912 824 641 183 88 112
is_linear=0
shrinkage=0.03


Tree=19
num_leaves=7
num_cat=0
split_feature=36 40 34 59 36 5
split_gain=39.8796 33.6989 14.6062 10.3904 6.03762 1.4009
threshold=0.41757954657077795 0.15612498670816424 0.18354833126068118 0.22108867019414905 0.35324633121490484 0.17083333432674411
decision_type=2 2 2 2 2 2
left_child=1 -1 3 -3 -4 -2
right_child=5 2 4 -5 -6 -7
leaf_value=0.038310330653681918 0.041762558716787863 -0.011484226687070078 0.0013063114985354632 0.0099101001541737482 0.044060986761252176 0.017266421770104155
leaf_weight=14.785413160920141 17.255986928939823 176.87373660504818 5.4753659665584546 22.309152364730835 5.6711841374635696 4.7043792456388465
leaf_count=68 80 718 22 90 23 21
internal_value=-0.000176129 -0.00400064 -0.00714216 -0.00905046 0.0248958 0.0374955
internal_weight=247.075 225.115 210.329 199.183 11.1466 21.9604
internal_count=1022 921 853 808 45 101
is_linear=0
shrinkage=0.03


Tree=20
num_leaves=7
num_cat=0
split_feature=36 102 63 36 59 3
split_gain=33.3966 33.6515 17.2444 25.9891 24.6101 2.27301
threshold=0.42193286120891577 0.87500000000000011 0.3659235835075379 0.36986057460308081 0.13434205204248431 0.17812500149011615
decision_type=2 2 2 2 2 2
left_child=1 5 3 -3 -4 -1
right_child=-2 2 4 -5 -6 -7
leaf_value=0.015498650504467729 0.039124047911860325 -0.0090206077749674981 0.023666431844836522 0.029703361641610918 -0.015760194402264335 0.041748953778151958
leaf_weight=5.9128145575523403 17.876626580953598 36.606181487441063 15.081012547016142 25.752599984407425 130.95021386444569 13.112181723117827
leaf_count=26 85 148 62 104 533 61
internal_value=0.000776595 -0.00239591 -0.00593901 0.00718782 -0.0115552 0.0347719
internal_weight=245.292 227.415 208.39 62.3588 146.031 19.025
internal_count=1019 934 847 252 595 87
is_linear=0
shrinkage=0.03


Tree=21
num_leaves=7
num_cat=0
split_feature=36 102 111 67 3 59
split_gain=36.6706 34.6234 12.0519 12.5438 12.0462 2.23484
threshold=0.41757954657077795 0.87500000000000011 0.29166667163372045 0.38888889551162725 0.29687500000000006 0.16772533208131793
decision_type=2 2 2 2 2 2
left_child=1 5 4 -4 -3 -1
right_child=-2 2 3 -5 -6 -7
leaf_value=0.041528827491225467 0.038380223352197027 0.022643653134432444 -0.013935971855836615 0.0055785339868410552 -0.025176879916379725 0.014998562182562458
leaf_weight=13.24775652587414 20.178494840860367 20.096396490931514 133.2323879301548 37.449433356523514 5.2199188917875281 5.5731481164693824
leaf_count=62 96 81 543 152 21 24
internal_value=0.000712083 -0.00298762 -0.00677705 -0.00964672 0.0122016 0.0348259
internal_weight=234.998 214.819 195.998 170.682 25.3163 18.8209
internal_count=979 883 797 695 102 86
is_linear=0
shrinkage=0.03


Tree=22
num_leaves=8
num_cat=0
split_feature=40 40 57 59 30 126 3
split_gain=20.9893 19.1435 13.4942 15.3628 9.49524 6.10786 4.74163
threshold=0.15612498670816424 0.42295251786708837 0.27635294198989874 0.16107331961393359 0.28497467935085302 0.49822269380092626 0.29270832240581518
decision_type=2 2 2 2 2 2 2
left_child=-1 2 3 -2 6 -4 -3
right_child=1 4 5 -5 -6 -7 -8
leaf_value=0.035885646984073941 0.0025673070100204628 0.036856541792068528 0.043232571275762875 -0.016415400991110538 -0.014294243516744482 0.00053611024045375989 0.012955990616714663
leaf_weight=12.321307092905043 59.832833051681519 10.848168671131132 5.4635878056287748 104.77704237401485 7.7419774383306494 5.7000795006752014 25.744355544447899
leaf_count=59 244 49 22 427 32 23 115
internal_value=-0.00068929 -0.00288974 -0.00733801 -0.00954168 0.0145192 0.0232684 0.0208335
internal_weight=232.429 220.108 175.774 164.61 44.3345 11.1637 36.5925
internal_count=971 912 716 671 196 45 164
is_linear=0
shrinkage=0.03


Tree=23
num_leaves=8
num_cat=0
split_feature=40 59 34 63 63 54 3
split_gain=21.496 19.9306 12.6781 12.5514 11.473 11.3455 9.74516
threshold=0.15612498670816424 0.20662237703800204 0.19125244766473773 0.43326623737812048 0.45841567218303686 0.15483241528272632 0.30729167163372045
decision_type=2 2 2 2 2 2 2
left_child=-1 2 4 5 -2 -3 -5
right_child=1 3 -4 6 -6 -7 -8
leaf_value=0.035920961221903733 -0.010126609857418419 -0.0018303406061523622 0.032737127745748537 -0.033836013046203851 0.020229589112876482 0.03262189992669539 0.0158010353251356
leaf_weight=13.911638528108595 152.86728051304817 12.003581926226614 6.2186640053987494 6.5971525460481626 11.164846420288084 28.477154970169067 5.8632941097021103
leaf_count=68 630 50 27 27 46 122 24
internal_value=0.00104612 -0.00127817 -0.0062817 0.0146306 -0.00795036 0.0226081 -0.0110405
internal_weight=237.104 223.192 170.251 52.9412 164.032 40.4807 12.4604
internal_count=994 926 703 223 676 172 51
is_linear=0
shrinkage=0.03


Tree=24
num_leaves=9
num_cat=0
split_feature=36 40 63 36 97 132 20 10
split_gain=32.3055 32.9315 16.2463 22.2524 13.2737 11.3043 3.37925 2.66432
threshold=0.41340368986129766 0.21794500201940539 0.3659235835075379 0.36986057460308081 0.18333333730697635 0.58333334326744091 0.087500002235174193 0.079315476119518294
decision_type=2 2 2 2 2 2 2 2
left_child=1 5 3 -3 -4 -1 -7 -2
right_child=7 2 4 -5 -6 6 -8 -9
leaf_value=-0.006296864240004251 0.039956222383727008 -0.0090449112060079287 -0.019538016071800255 0.029203898331629188 0.001005795056231654 0.012053316589532986 0.043982105077971081 0.012917353785349752
leaf_weight=6.6749752461910274 16.642614841461185 34.53453765809536 92.936431720852852 21.328020289540291 40.378066018223763 4.7716760933399227 15.902935013175009 5.5874834209680548
leaf_count=28 82 140 380 86 165 21 75 25
internal_value=0.000382205 -0.00321059 -0.00769312 0.00581505 -0.0133546 0.0269727 0.0375091 0.0340087
internal_weight=238.757 216.527 189.177 55.8626 133.314 27.3496 20.6746 22.2301
internal_count=1002 895 771 226 545 124 96 107
is_linear=0
shrinkage=0.03


Tree=25
num_leaves=6
num_cat=0
split_feature=36 40 58 125 63
split_gain=29.482 25.4947 11.9084 10.0068 7.154
threshold=0.42193286120891577 0.15612498670816424 0.33993460237979894 0.56494668126106273 0.41593337059021002
decision_type=2 2 2 2 2
left_child=1 -1 3 -3 -4
right_child=-2 2 4 -5 -6
leaf_value=0.035303358678012445 0.037291482472169263 0.011532206346007705 0.039216984704241641 -0.0098921498358322847 -0.00075581219584615919
leaf_weight=13.771475777029989 16.810062289237976 21.272177398204803 7.1202655136585218 172.85664677619934 7.9254819750785828
leaf_count=69 85 87 29 707 32
internal_value=0.000142817 -0.00281219 -0.00547765 -0.00749745 0.0194261
internal_weight=239.756 222.946 209.175 194.129 15.0457
internal_count=1009 924 855 794 61
is_linear=0
shrinkage=0.03


Tree=26
num_leaves=8
num_cat=0
split_feature=7 34 59 45 25 7 12
split_gain=17.9144 16.819 14.2651 12.2659 11.236 11.0063 4.52621
threshold=0.058333335444331176 0.19445277750492099 0.22213634848594668 0.053069375455379493 0.058333335444331176 0.14166667312383655 0.030277778394520286
decision_type=2 2 2 2 2 2 2
left_child=4 2 3 -2 6 -4 -1
right_child=1 -3 5 -5 -6 -7 -8
leaf_value=0.0046926183129806856 0.013100614680145284 0.040887311784078603 -0.012866966999008798 -0.010030812138723779 -0.011007819003602448 0.025186737282466381 0.039337735396406781
leaf_weight=4.5253583490848603 22.848480075597763 6.8777296990156165 8.8655538856983203 157.17815585434437 6.3440469652414313 22.878456860780716 17.3549864590168
leaf_count=20 95 30 36 651 26 100 83
internal_value=0.000764442 -0.00217459 -0.00375872 -0.00703888 0.0228279 0.0144906 0.0326906
internal_weight=246.873 218.648 211.771 180.027 28.2244 31.744 21.8803
internal_count=1041 912 882 746 129 136 103
is_linear=0
shrinkage=0.03


Tree=27
num_leaves=10
num_cat=0
split_feature=102 40 4 12 58 126 45 13 55
split_gain=20.8285 17.0542 19.1229 12.497 14.0381 11.0192 8.50952 6.12203 2.32546
threshold=0.87500000000000011 0.39999999105930334 0.21249999850988391 0.040992064401507385 0.17950544506311419 0.30543331801891332 0.064836204051971449 0.11467261984944345 0.047761350870132453
decision_type=2 2 2 2 2 2 2 2 2
left_child=8 3 7 6 -5 -4 -2 -3 -1
right_child=1 2 5 4 -6 -7 -8 -9 -10
leaf_value=0.03890988388695274 0.0026016546679433258 0.0081087613934088844 0.016727720371619792 0.025747308454663283 -0.0056538649748567229 -0.024215434499296751 -0.019342318926508818 0.032126018910254739 0.011294308476965461
leaf_weight=11.526402801275255 20.018918767571449 16.698795154690742 8.1838903129100817 16.272074624896049 48.725981280207634 16.117261469364166 72.470300495624542 24.40620219707489 4.8764375746250144
leaf_count=59 81 73 35 68 200 68 297 109 21
internal_value=0.000207135 -0.00225106 0.0105237 -0.00758948 0.00247834 -0.0103108 -0.0146156 0.0227934 0.0318207
internal_weight=239.296 222.893 65.4061 157.487 64.9981 24.3012 92.4892 41.105 16.4028
internal_count=1011 931 285 646 268 103 378 182 80
is_linear=0
shrinkage=0.03


Tree=28
num_leaves=9
num_cat=0
split_feature=40 40 3 59 67 132 126 111
split_gain=19.0417 15.2601 20.9552 13.0248 10.7642 12.0454 7.98482 2.80622
threshold=0.15612498670816424 0.39999999105930334 0.28541666269302374 0.21658464521169665 0.27777778357267385 0.58333334326744091 0.4847200214862824 0.45000000298023229
decision_type=2 2 2 2 2 2 2 2
left_child=-1 4 7 -4 6 -6 -2 -3
right_child=1 2 3 -5 5 -7 -8 -9
leaf_value=0.034319488802615004 -0.0018117366381060927 0.043981057688209153 -0.010111417535535516 0.024310726149949238 -0.016124500724071941 0.014732702896272746 -0.018590474430297516 0.017198858703310026
leaf_weight=13.20463605225086 42.390170350670815 12.539984479546549 34.973439902067184 12.64678582549095 15.909563198685644 34.073248147964478 64.073408961296082 7.3971557468175879
leaf_count=69 174 55 150 59 65 140 263 32
internal_value=0.000634526 -0.00149485 0.0103263 -0.000657734 -0.00663268 0.00478721 -0.0119888 0.0353403
internal_weight=237.208 224.004 67.5574 47.6202 156.446 49.9828 106.464 19.9371
internal_count=1007 938 296 209 642 205 437 87
is_linear=0
shrinkage=0.03


Tree=29
num_leaves=6
num_cat=0
split_feature=36 40 59 36 67
split_gain=25.0482 22.1867 12.6292 12.2915 10.4546
threshold=0.42193286120891577 0.15612498670816424 0.21127918362617495 0.34970225393772131 0.27777778357267385
decision_type=2 2 2 2 2
left_child=1 -1 4 -4 -3
right_child=-2 2 3 -5 -6
leaf_value=0.035913374340054344 0.036437976391442764 -0.011810363961004338 -0.0087074669838434916 0.024418020074925949 0.0041973801680487283
leaf_weight=12.820805057883261 16.402567535638809 118.228410333395 15.916866317391394 24.688679739832878 52.445906922221184
leaf_count=68 86 487 65 101 215
internal_value=0.00176657 -0.000921733 -0.0033156 0.011536 -0.0068956
internal_weight=240.503 224.101 211.28 40.6055 170.674
internal_count=1022 936 868 166 702
is_linear=0
shrinkage=0.03


Tree=30
num_leaves=9
num_cat=0
split_feature=40 59 40 111 59 40 57 68
split_gain=20.6098 13.5352 10.1163 9.60137 14.0392 11.6242 7.90362 4.08541
threshold=0.15612498670816424 0.21127918362617495 0.37267790734767919 0.29166667163372045 0.13434205204248431 0.33993457257747656 0.25028270483016973 0.34654000401496893
decision_type=2 2 2 2 2 2 2 2
left_child=-1 3 6 5 -5 -2 -3 -4
right_child=1 2 7 4 -6 -7 -8 -9
leaf_value=0.037250974383934467 -0.022077319766643351 -0.018903212503661924 0.031229439968329626 0.013980113489944801 -0.012138547444813628 0.023676814795687215 0.019986507586215379 0.0071833833211407596
leaf_weight=11.928304776549338 5.9320873618125942 11.948174968361856 18.53940470516682 20.754374548792839 128.4992620497942 17.752929717302322 6.4246414303779593 10.523046642541884
leaf_count=65 24 49 82 86 536 77 26 46
internal_value=0.00043448 -0.00171758 0.0123177 -0.00561598 -0.00843776 0.0117872 -0.00497447 0.0230513
internal_weight=232.302 220.374 47.4353 172.939 149.254 23.685 18.3728 29.0625
internal_count=991 926 203 723 622 101 75 128
is_linear=0
shrinkage=0.03


Tree=31
num_leaves=9
num_cat=0
split_feature=36 7 59 58 67 36 3 30
split_gain=26.0458 20.0803 12.2726 11.0448 10.4036 10.2232 4.64983 4.61476
threshold=0.41340368986129766 0.058333335444331176 0.2077000364661217 0.24944377690553668 0.27777778357267385 0.34237414598464971 0.37812499701976782 0.19323337078094485
decision_type=2 2 2 2 2 2 2 2
left_child=1 3 4 7 -3 -4 -2 -1
right_child=6 2 5 -5 -6 -7 -8 -9
leaf_value=0.0076142251461106137 0.036855049141622173 -0.015848310048978291 -0.010873125064110808 -0.014008983070068589 0.0013031368783084447 0.019156501564811423 0.00097925701764731664 0.040550707340829328
leaf_weight=5.8683316856622758 17.916449710726742 100.49780075252056 15.628932312130926 5.5475685894489279 46.161552667617798 25.85579027235508 3.9933809936046591 13.98370525240898
leaf_count=26 92 415 64 23 189 105 19 70
internal_value=0.0002401 -0.0030077 -0.00641551 0.021522 -0.0104776 0.00785352 0.0306443 0.0316466
internal_weight=235.454 213.544 188.144 25.3996 146.659 41.4847 21.9098 19.852
internal_count=1003 892 773 119 604 169 111 96
is_linear=0
shrinkage=0.03


Tree=32
num_leaves=8
num_cat=0
split_feature=36 7 34 25 31 37 15
split_gain=30.7717 19.308 15.4572 12.9146 12.0526 6.29485 4.21161
threshold=0.42193286120891577 0.058333335444331176 0.18141403049230578 0.058333335444331176 0.86881941556930553 0.37267793715000158 0.11326389387249948
decision_type=2 2 2 2 2 2 2
left_child=1 3 4 5 -3 -1 -4
right_child=-2 2 6 -5 -6 -7 -8
leaf_value=0.0013772650177788191 0.035871229641707893 -0.015631136792585581 0.038294942762476025 -0.017210817634068599 0.00019364580561204625 0.039694557144237079 0.0035348672237613412
leaf_weight=5.1803816109895768 17.348932415246964 118.92321470379829 6.58646012842655 6.0413886457681647 67.770152226090431 15.016787111759184 5.7290446162223816
leaf_count=23 95 492 27 25 277 78 24
internal_value=-0.00150088 -0.00452516 -0.00773421 0.0192045 -0.00991628 0.0303952 0.0236048
internal_weight=242.596 225.247 199.009 26.2386 186.693 20.1972 12.3155
internal_count=1041 946 820 126 769 101 51
is_linear=0
shrinkage=0.03


Tree=33
num_leaves=7
num_cat=0
split_feature=36 102 63 36 22 44
split_gain=22.9708 22.164 11.4066 10.1483 9.1215 3.14209
threshold=0.42193286120891577 0.87500000000000011 0.29700069129467016 0.34443745017051702 0.021808171644806865 0.11771025508642198
decision_type=2 2 2 2 2 2
left_child=1 5 3 -3 -4 -1
right_child=-2 2 4 -5 -6 -7
leaf_value=0.0055115208273943048 0.034915412377506554 -0.010359594946583166 -0.0099059564724755887 0.038174431343651533 0.010103966871159024 0.036752678368273048
leaf_weight=4.1981774270534542 14.707265064120291 5.8611011356115332 164.67191998660564 8.7414104044437391 22.578637629747391 12.443608671426771
leaf_count=19 82 24 681 36 93 68
internal_value=-0.000132118 -0.00263955 -0.00543303 0.0192786 -0.00745231 0.0296307
internal_weight=233.202 218.495 201.853 14.6025 187.251 16.6418
internal_count=1003 921 834 60 774 87
is_linear=0
shrinkage=0.03


Tree=34
num_leaves=7
num_cat=0
split_feature=36 36 34 67 54 48
split_gain=23.2513 22.7706 14.9541 14.2746 8.38063 1.69786
threshold=0.42193286120891577 0.25093132257461553 0.18354833126068118 0.27777778357267385 0.16479431837797168 0.19702655822038653
decision_type=2 2 2 2 2 2
left_child=1 4 3 -3 -1 -4
right_child=-2 2 5 -5 -6 -7
leaf_value=0.037984430642989363 0.034767970752629121 -0.013188610088418618 0.036420896381310096 0.0043304605586254779 -0.0068728740743754001 0.010451109629412316
leaf_weight=15.008263647556307 15.314440548419951 126.82173429429531 6.2954554259777051 61.641570672392845 4.5356841683387747 4.8779588043689728
leaf_count=82 87 526 26 253 19 20
internal_value=0.000211693 -0.00234974 -0.00541968 -0.00746595 0.0277463 0.0268732
internal_weight=234.495 219.181 199.637 188.463 19.5439 11.1734
internal_count=1013 926 825 779 101 46
is_linear=0
shrinkage=0.03


Tree=35
num_leaves=7
num_cat=0
split_feature=36 102 59 59 57 58
split_gain=22.2458 17.8631 11.6971 11.0591 9.91126 3.74328
threshold=0.42193286120891577 0.87500000000000011 0.2077000364661217 0.13434205204248431 0.25256739556789404 0.24944383651018145
decision_type=2 2 2 2 2 2
left_child=1 5 3 -3 -4 -1
right_child=-2 2 4 -5 -6 -7
leaf_value=0.035937890723911729 0.034702349427237981 0.012639028331727493 -0.00028556245570611694 -0.010137374515445295 0.03038808746272793 0.0029973490378086432
leaf_weight=12.350098475813867 16.086007758975029 21.380599662661552 25.782522767782211 138.21730588376522 13.977535367012022 4.2979020923376074
leaf_count=70 93 89 106 574 57 18
internal_value=0.00174884 -0.000853821 -0.00339861 -0.00702642 0.0109787 0.0280856
internal_weight=232.092 216.006 199.358 159.598 39.7601 16.648
internal_count=1007 914 826 663 163 88
is_linear=0
shrinkage=0.03


Tree=36
num_leaves=9
num_cat=0
split_feature=36 40 59 12 20 25 12 10
split_gain=21.661 17.3378 14.0196 13.3279 12.143 10.9467 4.27615 1.77696
threshold=0.41340368986129766 0.23369439691305163 0.20930548757314685 1.0000000180025095e-35 0.087500002235174193 0.058333335444331176 0.029166666790843013 0.072361115366220488
decision_type=2 2 2 2 2 2 2 2
left_child=1 5 3 -3 -4 6 -1 -2
right_child=7 2 4 -5 -6 -7 -8 -9
leaf_value=0.0029818679682065102 0.037054736074991594 0.02738968145074578 0.037933028259630436 -0.011702082631277701 -0.00027689567228436016 -0.015203157672823691 0.037781313287047362 0.013896443794025574
leaf_weight=4.1773135811090532 12.494384720921518 7.3726291358470908 9.8096150606870633 141.91140043735504 24.29437543451786 5.3603877276182166 15.223582372069357 6.072918012738227
leaf_count=19 71 30 40 589 99 22 83 30
internal_value=0.000395262 -0.00243038 -0.00564028 -0.00960207 0.0114812 0.020639 0.0308019 0.0305775
internal_weight=226.717 208.149 183.388 149.284 34.104 24.7613 19.4009 18.5673
internal_count=983 882 758 619 139 124 102 101
is_linear=0
shrinkage=0.03


Tree=37
num_leaves=9
num_cat=0
split_feature=36 36 58 14 45 121 43 17
split_gain=21.4057 16.5382 11.7626 11.1193 15.5383 7.25114 3.8295 1.83284
threshold=0.41340368986129766 0.25603820383548742 0.24944383651018145 0.14756944775581363 0.098952863365411772 0.34868930280208593 0.1819085776805878 0.25833334028720861
decision_type=2 2 2 2 2 2 2 2
left_child=1 2 7 4 -3 -5 -2 -1
right_child=6 3 -4 5 -6 -7 -8 -9
leaf_value=0.013807622106890695 0.037110787025787392 0.0033135145969075005 -0.020753149685224827 0.024768601734994934 -0.014745447107252231 -0.014642484391197154 0.0084124692190433951 0.039894488039229077
leaf_weight=4.827077776193625 14.06488820910454 70.253921091556549 3.8206454813480368 15.697441384196283 107.81580312550068 4.8706915676593772 6.7865769118070594 11.526501595973967
leaf_count=24 81 288 16 65 449 20 34 65
internal_value=0.00026552 -0.00255069 0.0226763 -0.00521357 -0.00764192 0.0151896 0.0285827 0.0334338
internal_weight=239.664 218.812 20.1742 198.638 178.07 20.5681 20.8515 16.3536
internal_count=1042 927 105 822 737 85 115 89
is_linear=0
shrinkage=0.03


Tree=38
num_leaves=9
num_cat=0
split_feature=36 40 34 59 30 24 56 12
split_gain=20.668 15.3953 16.8648 11.1664 10.7555 5.53657 2.21172 1.03517
threshold=0.41757954657077795 0.21794500201940539 0.18011574447155002 0.21127918362617495 0.21954818069934848 0.051995834335684783 0.16223323345184329 0.037361111491918571
decision_type=2 2 2 2 2 2 2 2
left_child=1 4 3 -3 5 -1 -4 -2
right_child=7 2 6 -5 -6 -7 -8 -9
leaf_value=0.019903735416865111 0.036208957364816753 -0.010291846245930204 0.013260988831337667 0.0088768154620979672 0.035460298083549953 -0.020872483118529576 0.040892527356589076 0.012474862987261234
leaf_weight=4.2925008386373538 13.40182773768902 143.47114856541157 6.584672197699545 32.922317266464233 15.150878727436064 5.9458674043416977 5.7856085151433945 3.4649516344070426
leaf_count=22 79 597 27 134 82 25 24 19
internal_value=0.00130403 -0.00127637 -0.0042563 -0.00668431 0.0202006 -0.00352693 0.0282762 0.0323044
internal_weight=231.02 214.153 188.764 176.393 25.3892 10.2384 12.3703 16.8668
internal_count=1009 911 782 731 129 47 51 98
is_linear=0
shrinkage=0.03


Tree=39
num_leaves=9
num_cat=0
split_feature=36 36 54 63 36 122 50 3
split_gain=19.7122 16.7585 20.0516 11.2133 18.1645 12.7166 3.72872 3.28324
threshold=0.41340368986129766 0.26190407574176794 0.17417044937610629 0.3659235835075379 0.3333073109388352 0.91307500004768383 0.42295257747173315 0.36041666567325598
decision_type=2 2 2 2 2 2 2 2
left_child=1 2 6 4 -3 -5 -1 -2
right_child=7 3 -4 5 -6 -7 -8 -9
leaf_value=0.0052275684338724867 0.036267319448587063 -0.020155982430038483 -0.02763176822595358 -0.01586376053368195 0.016154975813050858 0.0081497523093376541 0.039721233013966163 0.0061568307723382466
leaf_weight=3.8279839158058229 12.264190420508386 17.452281475067139 5.5928534865379325 112.31882886588573 36.92805702984333 23.408393517136574 15.007007151842116 4.9433181136846533
leaf_count=18 73 72 23 469 151 97 83 26
internal_value=-0.0015528 -0.00407846 0.0188331 -0.00710562 0.00434817 -0.0116929 0.0333278 0.0284305
internal_weight=231.743 214.535 24.4278 190.108 54.3803 135.727 18.835 17.2075
internal_count=1012 913 124 789 223 566 101 99
is_linear=0
shrinkage=0.03


Tree=40
num_leaves=7
num_cat=0
split_feature=36 102 42 33 126 125
split_gain=23.6209 18.7433 8.76444 8.60212 7.62311 4.27156
threshold=0.42193286120891577 0.87500000000000011 0.45925930142402654 0.15612497180700305 0.48856495320796972 0.75195002555847179
decision_type=2 2 2 2 2 2
left_child=1 5 3 -3 -4 -1
right_child=-2 2 4 -5 -6 -7
leaf_value=0.034407012888099331 0.035077399202064277 -0.0014400041948187895 0.02714488427084288 -0.015255621528815705 -0.0018393294894952172 -0.00039404384450676975
leaf_weight=12.650173559784891 14.527517542243002 76.294436499476433 10.895529881119726 86.159657746553421 25.690755113959312 4.1068228632211676
leaf_count=75 92 319 45 359 108 19
internal_value=-0.000669427 -0.00322661 -0.00583467 -0.0088158 0.00728483 0.0263361
internal_weight=230.325 215.797 199.04 162.454 36.5863 16.757
internal_count=1017 925 831 678 153 94
is_linear=0
shrinkage=0.03


Tree=41
num_leaves=6
num_cat=0
split_feature=36 40 34 63 48
split_gain=18.3663 16.3357 12.816 6.13203 5.22658
threshold=0.42193286120891577 0.15612498670816424 0.18141403049230578 0.36307337880134588 0.19476164877414706
decision_type=2 2 2 2 2
left_child=1 -1 3 -3 -4
right_child=-2 2 4 -5 -6
leaf_value=0.032506221628349735 0.03255523358915606 0.0023029886990356832 0.044884810574516772 -0.0094078348240225849 0.0051376476516219009
leaf_weight=10.460221141576765 13.422044545412062 55.537964954972267 5.1871264874935132 141.93447071313858 6.3081483095884323
leaf_count=68 87 228 22 596 26
internal_value=-0.000244607 -0.00238951 -0.00428277 -0.00611923 0.0252299
internal_weight=232.85 219.428 208.968 197.472 11.4953
internal_count=1027 940 872 824 48
is_linear=0
shrinkage=0.03


Tree=42
num_leaves=8
num_cat=0
split_feature=36 102 57 37 40 3 12
split_gain=21.3675 15.0752 11.0561 13.0015 10.6065 2.55561 0.960172
threshold=0.41757954657077795 0.87500000000000011 0.24616543203592303 0.41758228838443762 0.21794500201940539 0.18541666865348819 0.040208334103226669
decision_type=2 2 2 2 2 2 2
left_child=1 5 4 -4 -3 -1 -2
right_child=6 2 3 -5 -6 -7 -8
leaf_value=0.0076722868541926536 0.035211383213167698 0.017515003973556598 0.030994035113127497 -0.0054751149344991817 -0.010698338625166134 0.036837514570725614 0.012248357318946008
leaf_weight=4.7978708967566472 12.923951357603075 12.111222535371779 14.156044900417326 20.386053428053856 153.14949391782284 7.9250710979104042 3.4930621534585944
leaf_count=25 82 53 59 84 639 49 20
internal_value=-0.000644812 -0.00324825 -0.0053129 0.0099222 -0.0085378 0.0271997 0.0313093
internal_weight=228.943 212.526 199.803 34.5421 165.261 12.7229 16.417
internal_count=1011 909 835 143 692 74 102
is_linear=0
shrinkage=0.03


Tree=43
num_leaves=10
num_cat=0
split_feature=102 57 63 33 40 59 63 58 57
split_gain=11.6217 11.177 11.1903 19.3517 19.047 8.22269 6.66236 2.09439 1.59638
threshold=0.87500000000000011 0.26389814913272863 0.36398334801197058 0.15612497180700305 0.33993457257747656 0.20662237703800204 0.39415849745273596 0.24944383651018145 0.27835039794445043
decision_type=2 2 2 2 2 2 2 2 2
left_child=7 2 4 -4 -2 6 -3 -1 -7
right_child=1 5 3 -5 -6 8 -8 -9 -10
leaf_value=0.033305207877014097 -0.014966999764837903 0.026007612889880155 0.0052133178214610505 -0.018501920410364702 0.019983329877526112 0.013130550029472506 -0.014148993836455714 0.0062452522760484399 0.039367843733285897
leaf_weight=10.404836133122442 20.918882966041565 4.856665804982188 54.507769182324409 69.645097464323044 38.370911672711372 4.3230088353157035 9.1859650760889036 4.0198576897382727 9.51807653903961
leaf_count=68 87 21 235 301 170 21 39 17 44
internal_value=0.0015187 -0.000314721 -0.00303069 -0.00813158 0.00760829 0.0170395 0.000544901 0.0266579 0.03261
internal_weight=225.751 211.326 183.443 124.153 59.2898 27.8837 14.0426 14.4247 13.8411
internal_count=1003 918 793 536 257 125 60 85 65
is_linear=0
shrinkage=0.03


Tree=44
num_leaves=10
num_cat=0
split_feature=102 59 59 14 12 40 48 3 44
split_gain=15.1264 13.1633 13.5832 13.0051 12.7343 11.1034 9.44148 4.62755 1.88331
threshold=0.87500000000000011 0.20930548757314685 0.13434205204248431 0.11249998211860658 1.0000000180025095e-35 0.37267790734767919 0.23226623982191089 0.29687500000000006 0.13655864447355273
decision_type=2 2 2 2 2 2 2 2 2
left_child=8 2 3 -2 -4 6 -3 -7 -1
right_child=1 5 4 -5 -6 7 -8 -9 -10
leaf_value=0.011254362848675434 -0.014279250823016641 -0.022225399343813308 0.027613287382838199 0.031202435386185064 -0.011435389213675821 0.036606981271281216 0.024215904066200486 0.011245071155501291 0.036542218799120098
leaf_weight=5.2526017650961867 8.1273379027843493 11.067555680871008 7.0011876821517935 14.637115418910978 140.88065192103386 12.317826569080355 4.9023073911666861 15.174505442380903 9.0147597044706327
leaf_count=26 34 46 32 63 606 57 20 74 58
internal_value=-0.000276724 -0.0023235 -0.00608191 0.015047 -0.00941365 0.0122381 -0.00738229 0.0234944 0.0285793
internal_weight=228.376 214.108 170.646 22.7645 147.882 43.4622 15.9699 27.4923 14.2674
internal_count=1016 932 735 97 638 197 66 131 84
is_linear=0
shrinkage=0.03


Tree=45
num_leaves=8
num_cat=0
split_feature=36 36 63 36 54 59 43
split_gain=15.7958 16.0411 11.4764 10.4288 10.2298 9.73303 1.0542
threshold=0.41757954657077795 0.25603820383548742 0.3659235835075379 0.31857633590698248 0.16812614351511004 0.13434205204248431 0.20176867395639422
decision_type=2 2 2 2 2 2 2
left_child=1 4 3 -3 -1 -4 -2
right_child=6 2 5 -5 -6 -7 -8
leaf_value=0.035717846347939446 0.034160718362709293 -0.015707810819493892 0.017240824426487836 0.013939776918797048 -0.011194458227616546 -0.011527869345509954 0.010091957231253109
leaf_weight=14.528865180909635 11.186540022492407 13.151174783706663 10.688789367675779 43.406622305512428 5.1818019151687613 123.26085339486599 3.1328551918268195
leaf_count=89 75 55 44 178 22 520 17
internal_value=0.000484448 -0.00165113 -0.00435599 0.0068928 0.0234399 -0.00912147 0.0298974
internal_weight=224.538 210.218 190.507 56.5578 19.7107 133.95 14.3194
internal_count=1000 908 797 233 111 564 92
is_linear=0
shrinkage=0.03


Tree=46
num_leaves=7
num_cat=0
split_feature=36 102 56 63 28 44
split_gain=15.8244 12.6142 9.44825 9.79462 6.30464 3.6159
threshold=0.42193286120891577 0.87500000000000011 0.19755328446626666 0.36307337880134588 0.21249999850988391 0.13655864447355273
decision_type=2 2 2 2 2 2
left_child=1 5 3 -3 -4 -1
right_child=-2 2 4 -5 -6 -7
leaf_value=0.0047250668076576777 0.031565422455658812 0.0040723697557228534 -0.0024476351945790075 -0.011257506224000072 0.025658343728986361 0.036063733042788509
leaf_weight=5.6665211096405974 12.399841472506521 53.5326868891716 13.642959401011469 121.05898557603359 13.805333852767943 8.3303633108735067
leaf_count=28 86 221 57 515 58 55
internal_value=-7.41105e-05 -0.00202719 -0.00397933 -0.00656069 0.0120935 0.0245376
internal_weight=228.437 216.037 202.04 174.592 27.4483 13.9969
internal_count=1020 934 851 736 115 83
is_linear=0
shrinkage=0.03


Tree=47
num_leaves=9
num_cat=0
split_feature=36 36 21 36 10 3 122 132
split_gain=19.4918 18.2765 14.0204 10.785 6.47535 6.15746 6.05659 4.13091
threshold=0.41340368986129766 0.25603820383548742 0.10898569971323015 0.368776485323906 0.068819444626569762 0.20312500000000003 0.59887498617172252 0.58333334326744091
decision_type=2 2 2 2 2 2 2 2
left_child=1 5 3 -3 -4 6 -1 -2
right_child=7 2 4 -5 -6 -7 -8 -9
leaf_value=0.028593860442125644 0.035682156558028012 -0.013770010963065538 0.03056442930944463 0.002794999191204441 -0.0040033042807816254 0.038087415561122363 -0.015192749298389813 -0.0017370571691975273
leaf_weight=4.2215441092848796 14.60740051418543 111.28315991163254 12.037539869546892 51.21155671775341 7.457241714000701 10.881274051964281 5.3013013228774071 3.0909305214881888
leaf_count=26 97 470 50 213 31 66 26 17
internal_value=9.18873e-05 -0.00260325 -0.00565924 -0.00856425 0.0177913 0.0236448 0.00509083 0.0294037
internal_weight=220.092 202.394 181.989 162.495 19.4948 20.4041 9.52285 17.6983
internal_count=996 882 764 683 81 118 52 114
is_linear=0
shrinkage=0.03


Tree=48
num_leaves=7
num_cat=0
split_feature=36 102 63 36 36 58
split_gain=14.2364 12.7206 12.682 15.8702 9.71669 3.23308
threshold=0.42130748927593237 0.87500000000000011 0.3659235835075379 0.31857633590698248 0.29820060729980474 0.24944383651018145
decision_type=2 2 2 2 2 2
left_child=1 5 3 -3 -4 -1
right_child=-2 2 4 -5 -6 -7
leaf_value=0.035219612383723876 0.031206515885298453 -0.017115179842569297 0.0083993399716503388 0.017246768638967406 -0.011755864347281729 0.0015811700085334864
leaf_weight=9.2863736227154714 11.994993560016153 15.503936633467672 25.733160465955734 45.119879469275475 113.80179013311863 3.5582240670919409
leaf_count=64 86 65 111 186 483 15
internal_value=0.000720871 -0.00113369 -0.00304288 0.00832391 -0.00800551 0.0266883
internal_weight=224.998 213.003 200.159 60.6238 139.535 12.8446
internal_count=1010 924 845 251 594 79
is_linear=0
shrinkage=0.03


Tree=49
num_leaves=5
num_cat=0
split_feature=36 40 34 67
split_gain=15.2846 13.1739 10.4262 9.96089
threshold=0.42193286120891577 0.15612498670816424 0.19445277750492099 0.27777778357267385
decision_type=2 2 2 2
left_child=1 -1 3 -3
right_child=-2 2 -4 -5
leaf_value=0.031089934838880211 0.030957737046062288 -0.0098418960421155013 0.036361348413702921 0.0043167245317394382
leaf_weight=9.1351378411054593 12.197502650320528 131.60112239420414 4.6278514713048926 66.767828449606895
leaf_count=66 90 559 20 280
internal_value=-0.000373717 -0.00231206 -0.00396023 -0.00507858
internal_weight=224.329 212.132 202.997 198.369
internal_count=1015 925 859 839
is_linear=0
shrinkage=0.03


Tree=50
num_leaves=7
num_cat=0
split_feature=36 40 54 126 125 10
split_gain=17.4025 13.1139 8.30799 11.0663 10.4043 1.14314
threshold=0.41340368986129766 0.15612498670816424 0.2065599784255028 0.50885966420173656 0.60202834010124218 0.079315476119518294
decision_type=2 2 2 2 2 2
left_child=1 -1 4 -4 -3 -2
right_child=5 2 3 -5 -6 -7
leaf_value=0.031066864308710196 0.034433748781378976 0.0076744550196296618 0.022550917894545323 -0.0098402078924209532 -0.010791493322710129 0.011814234358526188
leaf_weight=9.0923134982585889 11.525163099169729 34.064610496163368 21.00603948533535 15.912630319595335 128.64232981204987 4.0970059037208548
leaf_count=67 82 144 87 67 546 23
internal_value=2.19318e-05 -0.00232009 -0.00398803 0.00869842 -0.00690217 0.0295693
internal_weight=224.34 208.718 199.626 36.9187 162.707 15.6222
internal_count=1016 911 844 154 690 105
is_linear=0
shrinkage=0.03


Tree=51
num_leaves=12
num_cat=0
split_feature=59 125 102 35 13 126 16 7 10 123 42
split_gain=8.89098 10.0969 11.8832 9.42779 6.57306 8.79106 5.02551 4.73109 3.897 0.679117 0.342038
threshold=0.22482019662857058 0.76111501455307018 0.87500000000000011 0.094904240220785155 0.11236110702157022 0.473030835390091 0.099722221493721022 0.14166667312383655 0.086031746119260802 0.90707498788833629 0.43157902359962469
decision_type=2 2 2 2 2 2 2 2 2 2 2
left_child=1 2 10 -4 6 -6 -3 -2 9 -9 -1
right_child=7 4 3 -5 5 -7 -8 8 -10 -11 -12
leaf_value=0.036062259313367526 -0.0022589475472803138 -0.0039019086281075767 0.01104020046608214 -0.0050598386190884997 0.024598180863940517 -0.013829888594249457 -0.040772358810015071 0.019376365653096122 0.001260038817011844 0.041360651149193579 0.013768002663824894
leaf_weight=7.7025165185332281 7.1744190752506283 5.1330058202147475 47.751338109374046 98.632742263376713 6.0815711542964008 21.25845305621624 9.831431642174719 5.1854436397552508 4.3260895907878867 7.2263271808624268 2.5758648738265038
leaf_count=52 30 22 206 432 27 98 42 27 20 37 17
internal_value=0.00110022 -0.00101031 0.00251908 0.000231361 -0.0138367 -0.00471553 -0.0291619 0.0179969 0.0263171 0.0343055 0.0321912
internal_weight=222.879 198.967 156.662 146.384 42.3045 27.34 14.9644 23.9123 16.7379 12.4118 10.2784
internal_count=1010 896 707 638 189 125 64 114 84 64 69
is_linear=0
shrinkage=0.03


Tree=52
num_leaves=9
num_cat=0
split_feature=40 45 12 7 53 67 27 7
split_gain=9.27901 9.80521 9.82801 12.5896 9.33263 7.82233 6.69019 2.49322
threshold=0.15612498670816424 0.098952863365411772 0.040992064401507385 0.087500002235174193 0.21794497221708301 0.38888889551162725 0.025407260283827785 0.14166667312383655
decision_type=2 2 2 2 2 2 2 2
left_child=-1 4 5 -4 7 -3 -6 -2
right_child=1 2 3 -5 6 -7 -8 -9
leaf_value=0.03006080632848257 0.0086901709401058722 -0.02117630283910912 0.025325225807429089 -0.0043202968877312795 0.034146600405118341 0.0045407567188372683 1.1280319525336194e-06 0.036875452491708413
leaf_weight=8.3402397930622083 4.8720999360084525 42.2561264783144 14.894609376788138 67.311733230948448 4.6279811486601821 13.706365168094633 62.688176341354847 9.720357306301592
leaf_count=64 20 189 64 293 22 60 281 45
internal_value=0.000773924 -0.00046691 -0.00533035 0.00129086 0.00770241 -0.0149085 0.0028141 0.0286259
internal_weight=228.418 220.077 138.169 82.2063 81.9086 55.9625 67.3162 14.5925
internal_count=1038 974 606 357 368 249 303 65
is_linear=0
shrinkage=0.03


Tree=53
num_leaves=8
num_cat=0
split_feature=36 125 57 45 44 45 36
split_gain=11.9366 12.3869 11.4955 14.3673 9.13995 6.25841 6.47923
threshold=0.42193286120891577 0.56494668126106273 0.2471917122602463 0.089752729982137694 0.14577379077672961 0.083238545805215849 0.35049569606781011
decision_type=2 2 2 2 2 2 2
left_child=1 5 3 -3 -4 -1 -7
right_child=-2 2 4 -5 -6 6 -8
leaf_value=-0.011093583666706923 0.030032249943144129 0.0063301470409511213 0.028157654045361517 -0.013716030809483921 -0.0020334489951133673 0.033468862747713497 -0.0057040135757769712
leaf_weight=4.7784193754196194 10.683230981230734 45.943318799138069 15.120529651641844 102.72718834131956 20.219952493906021 16.16164738684893 4.5428488552570334
leaf_count=20 82 192 64 451 85 89 19
internal_value=0.000518743 -0.00112184 -0.00386356 -0.0075203 0.0113033 0.0180743 0.025007
internal_weight=220.177 209.494 184.011 148.671 35.3405 25.4829 20.7045
internal_count=1002 920 792 643 149 128 108
is_linear=0
shrinkage=0.03


Tree=54
num_leaves=14
num_cat=0
split_feature=111 125 132 11 34 53 21 37 31 121 37 9 45
split_gain=11.6109 11.9532 11.7618 8.17852 7.80798 7.30903 6.51579 6.12196 5.42636 5.2144 4.15047 2.54788 2.11658
threshold=0.45000000298023229 0.58451998233795177 0.58333334326744091 0.091666664928197875 0.13603238016366961 0.17950547486543658 0.069586876779794707 0.41758228838443762 0.86451390385627758 0.27872236073017126 0.37267793715000158 0.73979169130325328 0.12711085379123691
decision_type=2 2 2 2 2 2 2 2 2 2 2 2 2
left_child=5 2 10 7 -5 11 9 -3 -8 -7 -2 -1 -4
right_child=1 3 12 4 -6 6 8 -9 -10 -11 -12 -13 -14
leaf_value=0.046725783833444598 0.01019278210110618 -0.0039462182978802635 0.01189818516797213 0.023753383748991441 -0.01642642604062031 0.0052188027575077655 0.0073817076345534787 -0.01765483099832009 0.040392691893943906 -0.022498491534368184 -0.025125017693808538 0.01449446418528659 0.038857159117214872
leaf_weight=5.3865887001156789 4.7949804961681366 69.928269371390343 4.9856353104114541 12.702587872743608 5.5427883714437476 20.961706683039669 13.131939187645914 50.465433284640312 6.3050532788038245 7.4786674231290808 5.4694301038980484 5.3645922318100929 10.058126047253607
leaf_count=24 21 315 24 58 24 95 64 224 28 34 23 24 65
internal_value=0.000629939 -0.0034743 0.0151066 -0.00695009 0.0113278 0.0119727 0.00661339 -0.00979056 0.0195424 -0.00258636 -0.00918624 0.0332451 0.0312212
internal_weight=222.576 163.947 25.3082 138.639 18.2454 58.6285 47.8774 120.394 19.437 28.4404 10.2644 10.7512 15.0438
internal_count=1023 754 133 621 82 269 221 539 92 129 44 48 89
is_linear=0
shrinkage=0.03


Tree=55
num_leaves=9
num_cat=0
split_feature=40 63 40 59 47 132 23 22
split_gain=10.0422 9.48113 18.013 14.6956 10.7177 10.2559 8.47519 6.51755
threshold=0.15612498670816424 0.36307337880134588 0.33993457257747656 0.13539297878742221 0.10689934343099596 0.58333334326744091 0.056370830163359649 0.0088237500749528425
decision_type=2 2 2 2 2 2 2 2
left_child=-1 2 7 5 -5 -3 -4 -2
right_child=1 3 6 4 -6 -7 -8 -9
leaf_value=0.030120226781600652 -0.025338494288193215 -0.0084897090339815726 0.009374572230234272 -0.014571904302992827 0.0032163709499010338 0.039164817923886062 0.037080064734286503 0.0065084149660341638
leaf_weight=8.8412019759416562 13.566766530275347 6.0584366470575306 28.471356190741062 86.179661422967911 46.396776810288429 9.7176004499197006 15.135763339698313 9.0309063345193845
leaf_count=70 57 26 131 378 213 42 70 38
internal_value=0.000486197 -0.000868991 0.00849317 -0.00507591 -0.0083692 0.021449 0.0196067 -0.0128748
internal_weight=223.398 214.557 66.2048 148.352 132.576 15.776 43.6071 22.5977
internal_count=1025 955 296 659 591 68 201 95
is_linear=0
shrinkage=0.03


Tree=56
num_leaves=7
num_cat=0
split_feature=36 102 67 34 132 54
split_gain=14.0939 9.69156 9.05163 11.7284 6.12129 4.59027
threshold=0.42193286120891577 0.87500000000000011 0.38888889551162725 0.18354833126068118 0.58333334326744091 0.17417044937610629
decision_type=2 2 2 2 2 2
left_child=1 5 3 -3 -4 -1
right_child=-2 2 4 -5 -6 -7
leaf_value=0.032229193277876475 0.030414656305264257 -0.0094218998813148363 -0.0044295681489979451 0.022076186489382154 0.017815395217484268 -0.0063449931921351647
leaf_weight=9.5487522557377797 12.029005460441111 137.45843294262886 18.914402514696121 10.583123192191122 24.967385679483414 3.3736805170774451
leaf_count=72 95 591 79 45 105 14
internal_value=0.000156403 -0.00175955 -0.00349581 -0.00703717 0.00834207 0.0224262
internal_weight=216.875 204.846 191.923 148.042 43.8818 12.9224
internal_count=1001 906 820 636 184 86
is_linear=0
shrinkage=0.03


Tree=57
num_leaves=7
num_cat=0
split_feature=36 40 14 45 16 13
split_gain=13.4122 13.1506 11.2517 9.32629 6.50166 1.78918
threshold=0.41473495960235601 0.15612498670816424 0.14756944775581363 0.098952863365411772 0.15284721553325656 0.080000001937150969
decision_type=2 2 2 2 2 2
left_child=1 -1 3 -3 -4 -2
right_child=5 2 4 -5 -6 -7
leaf_value=0.032447383559295884 0.005699096709092165 0.0028257841924186197 0.042908413332114113 -0.011335188480554361 0.0050394731396721818 0.031779507079609415
leaf_weight=8.4531501084566099 3.5410916879773131 66.158068343997002 5.4495335072279003 111.3990935087204 11.977737501263617 11.483050949871538
leaf_count=71 23 276 23 481 50 84
internal_value=-5.84848e-05 -0.00212985 -0.00378678 -0.00607251 0.0185671 0.0263718
internal_weight=218.462 203.438 194.984 177.557 17.4273 15.0241
internal_count=1008 901 830 757 73 107
is_linear=0
shrinkage=0.03


Tree=58
num_leaves=6
num_cat=0
split_feature=36 34 67 1 4
split_gain=12.4906 9.99189 11.9027 8.15297 7.04119
threshold=0.42193286120891577 0.19445277750492099 0.27777778357267385 0.61851850152015697 0.11250000074505807
decision_type=2 2 2 2 2
left_child=1 2 4 -4 -1
right_child=-2 -3 3 -5 -6
leaf_value=0.0091160081513262867 0.03169892341048345 0.036441430938677633 0.016193687562110003 -0.0046795172811628285 -0.010746217657852985
leaf_weight=17.779603451490402 9.4383920505642873 4.9413848519325247 38.100245378911495 28.952376678586006 118.46974602341652
leaf_count=75 78 22 173 125 529
internal_value=-0.000330343 -0.00192659 -0.00303295 0.00724461 -0.0081068
internal_weight=217.682 208.243 203.302 67.0526 136.249
internal_count=1002 924 902 298 604
is_linear=0
shrinkage=0.03


Tree=59
num_leaves=9
num_cat=0
split_feature=59 102 34 31 40 25 60 3
split_gain=11.2155 9.42793 9.44911 7.99548 6.11875 4.97558 3.44711 0.178707
threshold=0.22159840166568759 0.87500000000000011 0.19445277750492099 0.86944445967674266 0.34850303828716284 0.058333335444331176 0.11681498587131502 0.34687499701976782
decision_type=2 2 2 2 2 2 2 2
left_child=1 5 3 -3 -2 -1 7 -6
right_child=4 2 -4 -5 6 -7 -8 -9
leaf_value=0.034063587099988538 -0.0022342879425328809 -0.0093920676348775139 0.03171970349847892 0.0041256539528933154 0.040975270290317632 -0.0062760195007835777 0.0083838520039158249 0.020030026207991946
leaf_weight=8.699003800749777 8.6397793292999285 111.50760996341705 5.6783907786011687 59.869159802794456 8.6391094401478785 3.4567811489105216 6.5504401400685301 3.7927079796791068
leaf_count=70 36 495 29 260 43 15 33 22
internal_value=0.00110829 -0.00153149 -0.00333446 -0.00467322 0.0186125 0.022987 0.0277379 0.0365523
internal_weight=216.833 189.211 177.055 171.377 27.622 12.1558 18.9823 12.4318
internal_count=1003 869 784 755 134 85 98 65
is_linear=0
shrinkage=0.03


Tree=60
num_leaves=9
num_cat=0
split_feature=36 45 7 3 10 36 3 42
split_gain=12.6885 8.68092 16.0483 17.5456 8.87001 8.6589 20.3406 9.77907
threshold=0.42193286120891577 0.098952863365411772 0.087500002235174193 0.18541666865348819 0.089999999850988402 0.36986057460308081 0.28958332538604742 0.45341233909130102
decision_type=2 2 2 2 2 2 2 2
left_child=1 5 3 -3 -4 7 -7 -1
right_child=-2 2 4 -5 -6 6 -8 -9
leaf_value=-0.0062505046140457314 0.031950868816118562 -0.016614994803268213 -0.014075326688946415 0.029296469533678201 0.010369789235008638 0.042975725023788935 -0.0055577509527719353 0.034815004738852122
leaf_weight=36.918797016143799 10.750852629542349 10.596035838127138 86.771446511149406 20.880035735666752 15.007889717817305 15.543074205517771 14.27380385994911 5.0522330552339545
leaf_count=157 91 52 376 115 64 67 60 21
internal_value=0.00163351 -0.000103445 -0.00462606 0.0138052 -0.0104049 0.00823982 0.0203156 -0.000612112
internal_weight=215.794 205.043 133.255 31.4761 101.779 71.7879 29.8169 41.971
internal_count=1003 912 607 167 440 305 127 178
is_linear=0
shrinkage=0.03


Tree=61
num_leaves=6
num_cat=0
split_feature=36 102 59 63 58
split_gain=10.0341 9.34669 9.50175 8.98916 3.34993
threshold=0.42193286120891577 0.87500000000000011 0.24377653002738955 0.36307337880134588 0.24944383651018145
decision_type=2 2 2 2 2
left_child=1 4 3 -3 -1
right_child=-2 2 -4 -5 -6
leaf_value=0.033448003135399307 0.028695276335818441 0.0065143201789796259 0.034026509425473396 -0.007891995880432599 0.00074358525503019342
leaf_weight=8.2162138745188695 9.8474108874797803 53.893115267157555 5.1921720504760733 134.28523913025856 4.1274878382682791
leaf_count=69 87 226 23 583 18
internal_value=0.000572423 -0.000906104 -0.00256922 -0.00375349 0.0233876
internal_weight=215.562 205.714 193.371 188.178 12.3437
internal_count=1006 919 832 809 87
is_linear=0
shrinkage=0.03


Tree=62
num_leaves=8
num_cat=0
split_feature=36 7 54 42 37 11 4
split_gain=10.3638 9.76334 8.41161 8.02799 7.34532 6.62875 3.00957
threshold=0.42193286120891577 0.058333335444331176 0.17417044937610629 0.46526524424552923 0.33993460237979894 0.052638888359069831 0.17083333432674411
decision_type=2 2 2 2 2 2 2
left_child=1 2 6 4 -3 -5 -1
right_child=-2 3 -4 5 -6 -7 -8
leaf_value=0.0075123676823762673 0.031307383951890977 0.0078812999005619441 -0.01089863009376882 0.032845760752290232 -0.007131758348127671 0.00079270136576772246 0.037227377184309692
leaf_weight=4.8269096910953584 9.5305220633745176 36.982115164399147 5.7050776034593573 9.4008451253175753 128.97016173601151 13.26167021691799 11.757988199591635
leaf_count=26 85 156 24 41 555 58 86
internal_value=0.00226111 0.000806993 0.0191346 -0.0014484 -0.00375896 0.0149151 0.0294981
internal_weight=220.435 210.905 22.29 188.615 165.952 22.6625 16.5849
internal_count=1031 946 136 810 711 99 112
is_linear=0
shrinkage=0.03


Tree=63
num_leaves=9
num_cat=0
split_feature=102 42 62 67 11 53 113 122
split_gain=7.85305 8.73991 7.63667 8.01359 7.39623 8.58064 3.517 2.46893
threshold=0.87500000000000011 0.46093927323818212 0.48189435899257665 0.38888889551162725 0.052638888359069831 0.35707144439220434 0.37500000000000006 0.64680001139640819
decision_type=2 2 2 2 2 2 2 2
left_child=6 2 3 -2 7 -6 -1 -3
right_child=1 4 -4 -5 5 -7 -8 -9
leaf_value=0.033973090173739187 -0.0096832580175368801 0.013288717427488541 0.028286343934703567 0.0051920435217397863 -0.016595479728153895 0.019557396196339626 0.00062072346677913618 0.040383623396586237
leaf_weight=7.1449309438467008 129.76188937574625 7.7231983393430692 5.0750910043716422 42.702650614082813 11.855937145650389 9.9333963841199857 4.4315098971128464 6.3307439461350441
leaf_count=61 592 37 22 184 58 45 24 30
internal_value=-0.000774177 -0.00212243 -0.0048586 -0.0059914 0.0111945 2.09888e-05 0.0222702 0.0273657
internal_weight=224.959 213.383 177.54 172.465 35.8433 21.7893 11.5764 14.0539
internal_count=1053 968 798 776 170 103 85 67
is_linear=0
shrinkage=0.03


Tree=64
num_leaves=9
num_cat=0
split_feature=36 59 63 40 46 57 42 49
split_gain=10.4343 7.83586 11.6149 11.0326 10.4276 8.84801 6.00509 5.90168
threshold=0.42193286120891577 0.16152317076921466 0.36398334801197058 0.33993457257747656 0.22235237061977389 0.2808613926172257 0.33158014714717871 0.33688332140445715
decision_type=2 2 2 2 2 2 2 2
left_child=1 4 3 -3 6 -4 -1 -6
right_child=-2 2 5 -5 7 -7 -8 -9
leaf_value=-0.019633536427888742 0.03096054022359003 -0.01234934097432118 -0.013492469147382851 0.021609451067431097 -0.010856139111859935 0.013239440450992993 0.035143415263134942 0.009786048495135086
leaf_weight=1.4118810594081868 8.728423595428465 12.613506183028219 87.478415407240391 23.010320886969566 20.945627763867378 11.9378345310688 13.333109363913534 27.865733727812767
leaf_count=6 79 54 384 98 96 50 74 128
internal_value=0.000624141 -0.000857597 -0.00493803 0.00957661 0.00775442 -0.0101826 0.0289845 0.000888084
internal_weight=207.325 198.596 135.04 35.6238 63.5564 99.4162 14.745 48.8114
internal_count=969 890 586 152 304 434 80 224
is_linear=0
shrinkage=0.03


Tree=65
num_leaves=9
num_cat=0
split_feature=36 67 1 42 63 10 26 37
split_gain=8.5579 6.98484 8.55522 7.50666 7.06108 7.00294 5.78164 5.18619
threshold=0.42675288021564489 0.27777778357267385 0.61759251356124889 0.45925930142402654 0.36051562428474432 0.042222222313284881 0.17707883566617968 0.37267790734767919
decision_type=2 2 2 2 2 2 2 2
left_child=1 3 5 4 -1 -3 -4 -5
right_child=-2 2 6 7 -6 -7 -8 -9
leaf_value=0.0036094922679514459 0.030144825508590555 0.00019083686755106647 -0.029292964175498128 0.034661297628391673 -0.013144060214361266 0.027261792001255634 0.0023825319286586866 0.0025476973310541696
leaf_weight=31.128911800682545 7.2779263481497756 13.983208522200583 5.8341581225395229 4.3694282174110404 78.607048019766808 21.400350779294968 20.981988906860352 30.094992473721504
leaf_count=133 68 65 26 21 364 99 91 133
internal_value=0.000233796 -0.000961165 0.00736891 -0.00458028 -0.00840188 0.0168629 -0.00531418 0.00748164
internal_weight=213.678 206.4 62.1997 144.2 109.736 35.3836 26.8161 34.4644
internal_count=1000 932 281 651 497 164 117 154
is_linear=0
shrinkage=0.03


Tree=66
num_leaves=8
num_cat=0
split_feature=36 36 57 67 58 120 31
split_gain=10.6844 8.09641 10.6166 7.38158 9.01298 6.21436 2.44799
threshold=0.42193286120891577 0.25603820383548742 0.21165725588798526 0.38888889551162725 0.33993457257747656 0.89436250925064098 0.86354160308837902
decision_type=2 2 2 2 2 2 2
left_child=1 2 6 4 -3 -5 -1
right_child=-2 3 -4 5 -6 -7 -8
leaf_value=0.037413465744904902 0.030785398766388434 -0.0083987914878710032 -0.023518523284166159 0.0015583759103657429 0.016281741876473375 0.027461553388162675 0.0067719159648150879
leaf_weight=9.8213324248790759 9.0785624831914884 130.87095679342747 3.4927285164594641 34.113477423787117 13.883832588791845 10.089127883315085 3.649846449494361
leaf_count=76 87 569 15 143 60 42 21
internal_value=0.00062493 -0.000847123 0.0184086 -0.00266364 -0.00593615 0.00794743 0.0301532
internal_weight=215 205.921 16.9639 188.957 144.755 44.2026 13.4712
internal_count=1013 926 112 814 629 185 97
is_linear=0
shrinkage=0.03


Tree=67
num_leaves=7
num_cat=0
split_feature=36 40 57 63 64 21
split_gain=9.78827 7.41643 6.51179 7.54168 7.46853 0.956255
threshold=0.42675288021564489 0.15612498670816424 0.26389814913272863 0.42885883152484899 0.28494516015052801 0.062638957053422942
decision_type=2 2 2 2 2 2
left_child=1 5 4 -4 -3 -1
right_child=-2 2 3 -5 -6 -7
leaf_value=0.030654148132862803 0.03013985116494549 9.4882309552883425e-05 0.026455702030240991 -0.0061094259520021637 -0.01248402039073915 0.0037019292222228426
leaf_weight=5.6245018169283858 7.7553608492016783 95.532617993652821 12.261831350624563 11.779002919793127 75.475228324532509 1.810035668313503
leaf_count=52 76 410 56 49 334 15
internal_value=-0.000925135 -0.00225723 -0.0034317 0.0108934 -0.00549719 0.0253092
internal_weight=210.239 202.483 195.049 24.0408 171.008 7.43454
internal_count=992 916 849 105 744 67
is_linear=0
shrinkage=0.03


Tree=68
num_leaves=8
num_cat=0
split_feature=36 59 30 26 14 54 20
split_gain=8.10111 7.46896 7.29431 9.0331 6.8821 3.57224 2.09044
threshold=0.42675288021564489 0.12527897208929065 0.099636882543563857 0.15828470140695575 0.11249999329447748 0.12667568773031238 0.14166667312383655
decision_type=2 2 2 2 2 2 2
left_child=1 4 5 -4 -1 -3 -6
right_child=-2 2 3 -5 6 -7 -8
leaf_value=-0.0048924392137078363 0.029801217096040535 0.0012408660877927388 -0.028211854645274159 -0.002006301737769914 0.048119696998476784 0.031476023591353736 0.015594268699731132
leaf_weight=6.4012896940112105 7.2090997919440261 6.3615017384290677 11.76345159113407 166.59551245719194 4.3133614808320981 7.1080265268683434 4.8397115767002106
leaf_count=34 72 27 52 741 20 32 33
internal_value=0.000571401 -0.00058283 -0.00224025 -0.00388231 0.0187584 0.0182689 0.0341516
internal_weight=214.592 207.383 191.828 178.359 15.5544 13.4695 9.15307
internal_count=1011 939 852 793 87 59 53
is_linear=0
shrinkage=0.03


Tree=69
num_leaves=12
num_cat=0
split_feature=42 7 55 4 31 49 3 2 11 125 35
split_gain=9.51553 9.95721 6.99142 8.54417 7.24616 6.7682 5.49822 5.82254 2.07055 1.44402 0.140963
threshold=0.45803020894527441 0.029166667722165588 0.026615891605615619 0.27083334326744085 0.86881941556930553 0.40345035493373876 0.23958332836627963 0.92878779768943798 0.043392859399318702 0.71936285495758068 0.1507707089185715
decision_type=2 2 2 2 2 2 2 2 2 2 2
left_child=1 9 3 -3 -4 6 10 -8 -7 -1 -2
right_child=5 2 4 -5 -6 8 7 -9 -10 -11 -12
leaf_value=0.0328383130646012 0.021467625084033361 -0.0014383945718170435 -0.015877759784296216 0.030129901090196896 0.0012391211831975955 0.0059774604371348999 0.0006797154432024164 0.029476991703879421 -0.021273805086136906 0.0036719523004839732 0.04332730648674632
leaf_weight=6.4919067174196226 4.1720416992902738 55.612456776201725 62.032478392124176 7.945277824997901 34.198881179094315 3.6502818092703802 18.909919194877151 8.5274719819426519 5.126787357032299 2.2639609724283218 5.2332012355327606
leaf_count=58 18 249 287 36 152 19 94 41 25 14 23
internal_value=0.00028735 -0.00301456 -0.00478334 0.00291351 -0.00984455 0.0122894 0.0178495 0.0103517 -0.0104881 0.0264463 0.0366257
internal_weight=214.165 168.545 159.789 63.5577 96.2314 45.6197 36.8426 27.4374 8.77707 8.75587 9.40524
internal_count=1016 796 724 285 439 220 176 135 44 72 41
is_linear=0
shrinkage=0.03


Tree=70
num_leaves=14
num_cat=0
split_feature=36 3 26 36 125 14 11 27 45 3 26 42 59
split_gain=8.32817 24.4487 10.3296 10.3938 9.7669 9.57035 7.87986 7.7831 6.31124 4.81682 5.32942 4.50638 3.93643
threshold=0.36986057460308081 0.28958332538604742 0.22502803057432177 0.42675288021564489 0.57429999113082897 0.10555555298924447 0.091666664928197875 0.048497634008526809 0.029917581938207153 0.24687500298023227 0.17882090806961062 0.44081765413284307 0.17972009629011157
decision_type=2 2 2 2 2 2 2 2 2 2 2 2 2
left_child=4 9 3 -3 5 -1 8 -4 -6 -2 -11 -7 -8
right_child=1 2 7 -5 6 11 12 -9 -10 10 -12 -13 -14
leaf_value=-0.019312574308282211 0.045575690989228236 -0.023238351855093934 0.039430452472549872 0.026543356197081119 0.021737906024225727 0.032671960280532639 0.035714796262948253 -0.0029607745741265152 -0.011952360785191393 -0.0056749060712480695 0.029301582984867975 0.0014569512377196748 0.0008501232440718215
leaf_weight=5.5915061160922077 10.512794233858587 24.716767020523552 5.3903879076242438 3.566556103527545 4.361650973558425 12.357817120850088 3.9731611758470518 9.6696455180644971 102.95909960567951 5.3903657123446491 11.050423972308634 6.1870262920856467 7.1626018881797791
leaf_count=26 46 109 29 35 19 75 21 47 457 27 54 30 32
internal_value=-0.000169879 0.00821238 -0.00577354 -0.0162688 -0.00433067 0.0127146 -0.00788112 0.0137226 -0.0103951 0.0301047 0.0181661 0.0228652 0.0152075
internal_weight=212.89 70.2969 43.3434 28.2833 142.593 24.1363 118.457 15.06 107.321 26.9536 16.4408 18.5448 11.1358
internal_count=1007 347 220 144 660 131 529 76 476 127 81 105 53
is_linear=0
shrinkage=0.03


Tree=71
num_leaves=15
num_cat=0
split_feature=67 36 102 46 42 20 63 59 54 42 38 125 60 10
split_gain=8.85398 8.41207 8.94338 6.88568 6.20453 8.75856 5.63184 7.37027 5.35108 3.9842 3.38955 2.21791 1.766 0.997317
threshold=0.38888889551162725 0.39122317731380468 0.87500000000000011 0.30766557157039648 0.41526611149311071 0.11250000074505807 0.37975551187992101 0.20402050763368609 0.16271965205669406 0.44908490777015692 0.24944388121366504 0.75519499182701122 0.1311479061841965 0.063888888806104674
decision_type=2 2 2 2 2 2 2 2 2 2 2 2 2 2
left_child=1 2 11 -4 5 10 13 -8 12 -10 -2 -1 -6 -3
right_child=4 6 3 -5 8 -7 7 -9 9 -11 -12 -13 -14 -15
leaf_value=0.033059465931188192 -0.032415530506300368 0.032093887530856423 -0.013098844985905503 0.0007319617159779817 0.041657499246504484 0.023678115387549357 -0.01602040405922581 0.023779581845022556 -0.0039454589770493848 0.026241058881272469 -0.0014797646861980682 -0.0003001533543592899 0.014761694330511336 0.010423988834315697
leaf_weight=5.5319336727261534 5.0919397473335284 8.7622066065669078 73.162806421518326 57.345317527651787 8.9680168330669421 7.0809603445231906 9.3307010009884817 6.0420734584331504 9.6993284001946432 5.3827143535017958 6.8977309986948967 2.4480462297797203 4.8392278254032126 4.0084958150982848
leaf_count=49 23 58 323 250 44 36 44 43 42 24 31 13 23 23
internal_value=0.00121774 -0.00206621 -0.00511752 -0.00706223 0.0124366 -0.000887781 0.012609 0.00011944 0.0209679 0.00778977 -0.016102 0.0239318 0.0338645 0.026543
internal_weight=214.591 166.632 138.488 130.508 47.9599 19.0706 28.1435 15.3728 28.8893 15.082 11.9897 7.97998 13.8072 12.7707
internal_count=1026 803 635 573 223 90 168 87 133 66 54 62 67 81
is_linear=0
shrinkage=0.03


Tree=72
num_leaves=10
num_cat=0
split_feature=36 126 125 132 27 43 63 63 10
split_gain=9.42567 8.87599 9.79062 8.34752 8.04487 7.02643 5.42497 4.82382 2.69878
threshold=0.41340368986129766 0.48933805525302893 0.57429999113082897 0.58333334326744091 0.057884855195879943 0.13968436419963839 0.36307337880134588 0.40913555026054388 0.079315476119518294
decision_type=2 2 2 2 2 2 2 2 2
left_child=1 4 3 -3 5 -1 -4 -6 -2
right_child=8 2 6 -5 7 -7 -8 -9 -10
leaf_value=-0.0087707339284719861 0.032411043175717046 -0.0080398193973114963 0.00038469322813211386 0.030211876391018164 0.043130937847000443 0.0099435332570103774 -0.014917650952464128 0.0095152553687460634 0.0016017932131463472
leaf_weight=30.1617426648736 9.5262896642088872 8.8091794773936272 30.515919223427773 10.272693995386362 6.5730451419949523 42.005311246961355 64.499077588319778 9.3315337486565095 3.5231789201498023
leaf_count=133 89 38 128 60 29 192 292 44 23
internal_value=0.00103786 -0.000610381 -0.00611019 0.0130319 0.00650323 0.00210906 -0.0100502 0.0251376 0.024799
internal_weight=215.218 202.169 114.097 19.0819 88.0716 72.1671 95.015 15.9046 13.0495
internal_count=1028 916 518 98 398 325 420 73 112
is_linear=0
shrinkage=0.03


Tree=73
num_leaves=7
num_cat=0
split_feature=36 102 42 49 67 3
split_gain=7.71468 7.53721 9.15318 7.42475 7.40602 4.20775
threshold=0.42675288021564489 0.87500000000000011 0.45925930142402654 0.40345035493373876 0.27777778357267385 0.16770833730697635
decision_type=2 2 2 2 2 2
left_child=1 5 4 -4 -3 -1
right_child=-2 2 3 -5 -6 -7
leaf_value=-0.0060078602447119402 0.029329380999930699 -0.010373975219223721 0.017687805118955506 -0.015097598033860158 0.0031201937903249689 0.032753930606081762
leaf_weight=3.1306780278682691 6.9207129105925551 98.813371203839779 29.221195928752422 7.0049589425325385 57.205798797309399 7.9159606732428074
leaf_count=18 75 438 129 32 244 66
internal_value=0.000281085 -0.000846538 -0.00227771 0.0111129 -0.00543786 0.0221818
internal_weight=210.213 203.292 192.245 36.2262 156.019 11.0466
internal_count=1002 927 843 161 682 84
is_linear=0
shrinkage=0.03


Tree=74
num_leaves=13
num_cat=0
split_feature=59 59 122 4 58 45 56 63 34 123 56 7
split_gain=8.89895 8.43115 11.1861 10.3155 8.09487 6.31029 5.86429 5.77886 5.36148 5.04052 3.49923 2.65046
threshold=0.20440677553415301 0.1650083810091019 0.18817500025033954 0.27083334326744085 0.24944379180669787 0.086304288357496275 0.21310045570135119 0.43326623737812048 0.098305255174636855 0.85782501101493847 0.17871151119470599 0.14166667312383655
decision_type=2 2 2 2 2 2 2 2 2 2 2 2
left_child=1 3 -3 8 5 -2 -4 11 -1 -5 -9 -6
right_child=4 2 6 9 7 -7 -8 10 -10 -11 -12 -13
leaf_value=0.010148186252629445 0.012776291760527964 0.025748637026288702 -0.014580484214187792 0.042924021896682936 0.01023335614683076 -0.023323775625076121 0.011580154212580022 0.017207073613885474 -0.0074559968916403209 0.0029298855440991721 -0.015994943132423167 0.033775949407339363
leaf_weight=25.259690102189779 7.6372111961245519 6.7923998683691016 74.571582019329071 7.3931888341903669 7.1786625236272839 7.8981990665197372 7.8461440950632086 4.4856169670820218 37.251552615314722 4.5183035731315613 4.9615635126829147 16.858682427555323
leaf_count=116 38 32 346 54 30 37 35 21 174 20 21 94
internal_value=0.000691182 -0.00267908 -0.00885474 0.0047429 0.0117701 -0.00587757 -0.011981 0.0198908 -0.000294676 0.0291552 -9.22215e-05 0.0274346
internal_weight=212.653 163.633 89.2101 74.4227 49.0199 15.5354 82.4177 33.4845 62.5112 11.9115 9.44718 24.0373
internal_count=1018 777 413 364 241 75 381 166 290 74 42 124
is_linear=0
shrinkage=0.03


Tree=75
num_leaves=6
num_cat=0
split_feature=36 40 29 23 14
split_gain=8.0706 7.12362 6.74193 7.06406 0.792305
threshold=0.42675288021564489 0.15612498670816424 0.34166666865348821 0.030536459758877758 0.13055554777383807
decision_type=2 2 2 2 2
left_child=1 4 3 -3 -1
right_child=-2 2 -4 -5 -6
leaf_value=0.029913391445303521 0.028911495646304977 -0.020209630107187345 0.020613057113407662 -0.0030054137182196532 0.0046896273283438591
leaf_weight=5.2361587323248378 6.4232631288468829 23.778759926557541 8.5446895658969861 165.72323487699032 1.8812432885169981
leaf_count=55 72 104 37 730 16
internal_value=-0.00183653 -0.00293475 -0.00404476 -0.00525896 0.0246454
internal_weight=211.587 205.164 198.047 189.502 7.1174
internal_count=1014 942 871 834 71
is_linear=0
shrinkage=0.03


Tree=76
num_leaves=12
num_cat=0
split_feature=126 57 15 43 36 37 37 61 1 125 126
split_gain=10.3128 8.98517 8.3681 8.2072 7.66235 7.8267 6.63713 5.63114 5.91793 4.65036 3.70599
threshold=0.48933805525302893 0.12398073449730874 0.079629633575677886 0.094712149351835265 0.42130748927593237 0.47140450775623327 0.39999996125698095 0.33993457257747656 0.57916665077209484 0.73052000999450695 0.53499332070350658
decision_type=2 2 2 2 2 2 2 2 2 2 2
left_child=2 9 3 -1 5 -3 -5 -4 -9 10 -2
right_child=1 4 7 6 -6 -7 -8 8 -10 -11 -12
leaf_value=-0.032317882635778956 0.0042264217133063872 -0.012665458795463342 -0.010095335737766886 0.016463625050312999 0.027184983217825906 0.023090732999658217 -0.0079004001223451775 0.0098994305854214724 0.033243307288601164 -0.0096282546269447541 0.033250178263248928
leaf_weight=5.4406713545322409 7.5489675551652935 89.71516190469265 5.3752476200461379 18.903514988720417 4.154514528810977 4.9639531746506682 19.47294408082962 22.164011768996716 18.432384870946407 5.7348441034555426 8.1763955578207952
leaf_count=24 41 398 24 89 46 25 98 104 88 28 45
internal_value=0.000824462 -0.00490304 0.00846732 -0.000941812 -0.00872563 -0.010569 0.00421418 0.0172646 0.0210429 0.0123064 0.020403
internal_weight=210.083 120.294 89.7888 43.8171 98.8336 94.6791 38.3765 45.9716 40.5964 21.4602 15.7254
internal_count=1010 583 427 211 469 423 187 216 192 114 86
is_linear=0
shrinkage=0.03


Tree=77
num_leaves=10
num_cat=0
split_feature=36 7 111 36 33 30 122 46 51
split_gain=7.96124 7.70868 7.73958 8.7655 7.46909 5.51709 3.24351 2.3878 2.35931
threshold=0.41340368986129766 0.058333335444331176 0.45000000298023229 0.33814229071140295 0.15612497180700305 0.21994804590940478 0.60207501053810131 0.21408720314502719 0.39999999105930334
decision_type=2 2 2 2 2 2 2 2 2
left_child=1 5 3 -3 -4 6 -1 -2 -7
right_child=7 2 4 -5 -6 8 -8 -9 -10
leaf_value=0.017190082165998544 -0.00033019290974727018 -0.011532077273083568 0.0018075080137808779 0.015392120626042461 -0.012649215509445597 0.038982548491667109 -0.016064690774720169 0.03044766484863495 0.0069177082851085668
leaf_weight=3.7876596078276652 2.9061976447701445 14.825410619378088 55.078661948442459 34.581469014286995 75.565975248813629 7.2509126327931863 4.890182264149189 9.00671264156699 3.4256947934627533
leaf_count=23 24 63 238 146 337 58 23 83 22
internal_value=0.000665802 -0.000808503 -0.00277248 0.00724454 -0.00658695 0.0167007 -0.00127339 0.0234952 0.0301678
internal_weight=211.319 199.406 180.052 49.4069 130.645 19.3544 8.67784 11.9129 10.6766
internal_count=1017 910 784 209 575 126 46 107 80
is_linear=0
shrinkage=0.03


Tree=78
num_leaves=11
num_cat=0
split_feature=125 26 34 33 31 126 13 15 29 60
split_gain=7.96711 8.03813 7.8358 6.58258 9.29276 7.2328 4.13578 2.92119 2.18055 0.326272
threshold=0.56494668126106273 0.15851003676652911 0.18141403049230578 0.26339136064052587 0.7973611354827882 0.48856495320796972 0.13333333283662799 0.11326389387249948 0.18750000000000003 0.10877426341176034
decision_type=2 2 2 2 2 2 2 2 2 2
left_child=1 8 3 5 -5 -2 9 -4 -1 -3
right_child=2 6 7 4 -6 -7 -8 -9 -10 -11
leaf_value=0.0072430028046797821 0.0014675185117545716 0.047099786151230068 0.033747467204893744 -0.0087399685320436009 0.038115360116571163 -0.011372422978956116 0.0063385675086272157 0.0025210131676669505 -0.018782037215992149 0.021458896043835673
leaf_weight=5.1913968734443205 67.188639186322689 5.481237590312956 5.8301655799150449 7.0340942665934545 6.599539190530777 94.049194812774658 5.4595661014318457 4.7413714900612831 4.5973783805966377 3.5587322972714901
leaf_count=26 315 28 31 36 33 436 26 25 25 28
internal_value=-0.000629742 0.0151749 -0.00277004 -0.00432947 0.0149957 -0.00604589 0.0286483 0.0211705 -0.00558783 0.0401486
internal_weight=209.731 24.2883 185.443 174.871 13.6336 161.238 14.4995 10.5715 9.78878 9.03997
internal_count=1009 133 876 820 69 751 82 56 51 56
is_linear=0
shrinkage=0.03


Tree=79
num_leaves=7
num_cat=0
split_feature=102 34 67 26 5 125
split_gain=6.30626 6.71862 7.45117 8.28405 6.28165 2.26903
threshold=0.87500000000000011 0.19445277750492099 0.38888889551162725 0.17842491716146472 0.11250000074505807 0.75309333205223095
decision_type=2 2 2 2 2 2
left_child=5 2 4 -4 -2 -1
right_child=1 -3 3 -5 -6 -7
leaf_value=0.031536806090648392 -0.0094190854754994755 0.031029272835138674 -0.010304575139970197 0.018036499212225152 0.0029281577462503877 0.0013345274150072747
leaf_weight=7.7671031244099122 71.571519438177347 5.5744170770049086 11.89846611022949 33.924267020076513 75.098223756998777 3.1289948970079422
leaf_count=72 333 31 51 150 360 17
internal_value=0.00248741 0.00120697 0.000187442 0.0106145 -0.00312 0.023705
internal_weight=208.963 198.067 192.492 45.8227 146.67 10.8961
internal_count=1014 925 894 201 693 89
is_linear=0
shrinkage=0.03


Tree=80
num_leaves=7
num_cat=0
split_feature=36 40 126 46 12 34
split_gain=7.08528 7.242 6.70602 12.767 5.72646 0.0206039
threshold=0.42675288021564489 0.15612498670816424 0.48856495320796972 0.30252785980701452 0.068541668355464949 0.1337554529309273
decision_type=2 2 2 2 2 2
left_child=1 5 3 -3 -4 -1
right_child=-2 2 4 -5 -6 -7
leaf_value=0.029917899544284542 0.028726731712493538 -0.0030176814505483039 -0.0095017148828644982 0.023406182203559271 0.012644858454535765 0.010893182785219706
leaf_weight=5.0655879043042651 6.3537187203764907 61.069504901766777 99.005551666021347 21.436779886484146 10.87313539534807 1.6835082396864889
leaf_count=54 74 270 441 92 49 19
internal_value=-0.000195105 -0.00125683 -0.00239024 0.00404584 -0.00721591 0.0271905
internal_weight=205.488 199.134 192.385 82.5063 109.879 6.7491
internal_count=999 925 852 362 490 73
is_linear=0
shrinkage=0.03


Tree=81
num_leaves=15
num_cat=0
split_feature=67 59 34 59 4 63 22 7 126 122 57 26 1 1
split_gain=7.52868 8.67812 7.83136 7.75859 7.22843 6.84253 8.68519 8.05798 6.28851 6.27136 5.77317 5.25427 4.32151 3.46721
threshold=0.27777778357267385 0.16447323560714724 0.11091804131865503 0.19061032682657245 0.21249999850988391 0.38362979888916021 0.013282916974276306 0.058333335444331176 0.48411747813224798 0.28757500648498541 0.13680088520050052 0.16117514669895175 0.61851856112480175 0.6138887107372285
decision_type=2 2 2 2 2 2 2 2 2 2 2 2 2 2
left_child=2 4 8 12 13 6 -4 -7 10 -5 -1 -10 -3 -2
right_child=1 3 5 9 -6 7 -8 -9 11 -11 -12 -13 -14 -15
leaf_value=-0.025101492587365427 0.021482012470356998 0.00020412947498798034 0.0021505962731217269 0.04626586491250341 0.044307082309310276 0.026760299239397736 0.031597757007704057 -0.0082833193522621838 0.0050833541057769254 0.0046612574067668904 0.017813845247961799 -0.029733779531650534 -0.030571817727099136 -0.0056984249081329262
leaf_weight=3.2297557666897756 8.9647951647639292 8.1633956655859929 33.514593306928873 2.9049370437860516 8.4520185850560647 5.5685375966131678 11.415245041251181 59.461394548416138 4.4992828816175487 21.642778836190701 7.5408674851059914 19.33138420432806 7.2358259856700888 6.739296853542327
leaf_count=16 42 36 162 13 51 40 57 279 20 99 36 94 32 30
internal_value=0.00112524 0.00960092 -0.00267328 0.000886402 0.023404 0.00127502 0.0101573 -0.00492269 -0.014904 0.0112029 0.0039057 -0.0232202 -0.0152394 0.0101749
internal_weight=208.664 64.103 144.561 39.9469 24.1561 109.96 44.9298 65.0299 34.6013 24.5477 10.7706 23.8307 15.3992 15.7041
internal_count=1007 303 704 180 123 538 219 319 166 112 52 114 68 72
is_linear=0
shrinkage=0.03


Tree=82
num_leaves=15
num_cat=0
split_feature=36 3 126 36 25 24 123 11 30 26 64 59 27 12
split_gain=6.73061 21.5726 9.49574 7.93436 6.04474 9.20559 5.96119 5.59093 5.52228 3.82882 3.74047 3.98856 2.31207 2.10263
threshold=0.368776485323906 0.29270832240581518 0.31316360831260687 0.24886424094438556 0.070833336561918273 0.072950001806020751 0.90637499094009411 0.068819444626569762 0.16262938827276233 0.23504235595464709 0.2791611254215241 0.18498801440000537 0.068869218230247511 0.027638889849185947
decision_type=2 2 2 2 2 2 2 2 2 2 2 2 2 2
left_child=3 10 9 6 5 -5 13 -6 -4 -3 12 -12 -2 -1
right_child=1 2 8 4 7 -7 -8 -9 -10 -11 11 -13 -14 -15
leaf_value=0.00022378815240733777 0.048054874811322687 0.0029114866205913132 0.014136866278108859 -0.0011116072647179226 -0.0032997341700151599 -0.021604412357949396 -0.016955131895397661 0.020215504873970863 -0.019744842617946651 0.033836378130400323 -0.0040902366906249822 0.028279253344416194 0.017443635436979979 0.035657708442924423
leaf_weight=1.8162747994065274 10.032209224998953 9.4359106048941594 4.5098508596420315 55.213411465287209 22.607789441943169 29.797990769147873 2.4356958493590346 13.974862262606619 23.362467385828495 5.0495005995035163 5.1947455704212171 7.9234734401106834 4.8285627439618102 8.2354737147688848
leaf_count=10 45 49 28 243 99 134 11 61 117 27 26 42 24 78
internal_value=0.00223655 0.00968323 -0.00387621 -0.00171261 -0.00410326 -0.00846236 0.0201442 0.00598215 -0.0139629 0.0151806 0.0296364 0.0160793 0.0398356 0.0298546
internal_weight=204.418 70.3367 42.3577 134.081 121.594 85.0114 12.4874 36.5827 27.8723 14.4854 27.979 13.1182 14.8608 10.0517
internal_count=994 358 221 636 537 377 99 160 145 76 137 68 69 88
is_linear=0
shrinkage=0.03


Tree=83
num_leaves=8
num_cat=0
split_feature=57 36 40 3 12 59 26
split_gain=7.05882 6.96237 7.06931 7.62031 5.88805 4.96782 0.418158
threshold=0.27835039794445043 0.42675288021564489 0.21794500201940539 0.18541666865348819 0.026269841939210895 0.20662237703800204 0.25355105102062231
decision_type=2 2 2 2 2 2 2
left_child=1 2 3 -1 -4 -2 -7
right_child=5 -3 4 -5 -6 6 -8
leaf_value=-0.0072974587500455167 -0.0002808556229143927 0.028312179499245405 0.0021722708527956449 0.030180264309007519 -0.0091294711462737363 0.018394537951794247 0.04120506660661629
leaf_weight=7.8686485514044788 6.8877267912030211 5.8555197976529589 70.675940431654453 10.61312187835574 98.367670878767967 4.1830814629793149 4.3448150791227818
leaf_count=46 31 70 305 80 441 23 21
internal_value=0.000198988 -0.00139732 -0.00247026 0.0146685 -0.00441931 0.019089 0.033121
internal_weight=208.797 193.381 187.525 18.4818 169.044 15.4156 8.5279
internal_count=1017 942 872 126 746 75 44
is_linear=0
shrinkage=0.03


Tree=84
num_leaves=7
num_cat=0
split_feature=36 102 126 15 63 11
split_gain=7.02103 6.88119 7.36726 8.03823 6.30015 2.61958
threshold=0.42193286120891577 0.87500000000000011 0.48856495320796972 0.079629633575677886 0.46657520532608038 0.042638888582587249
decision_type=2 2 2 2 2 2
left_child=1 5 3 -3 -4 -1
right_child=-2 2 4 -5 -6 -7
leaf_value=0.0025210728336165717 0.028970502942070549 -0.0043770873566564127 -0.0080913054633616373 0.014180747916889067 0.023791446552776787 0.034022681031850112
leaf_weight=3.8436156809329969 6.7761689834296694 39.497469387948513 104.74489696323872 43.001295372843742 4.9339655786752692 6.0408804267644882
leaf_count=20 81 172 466 189 22 59
internal_value=0.000997501 -7.86241e-05 -0.00138591 0.0053499 -0.00645504 0.0231302
internal_weight=208.838 202.062 192.178 82.4988 109.679 9.8845
internal_count=1009 928 849 361 488 79
is_linear=0
shrinkage=0.03


Tree=85
num_leaves=14
num_cat=0
split_feature=54 125 132 63 132 126 4 48 68 18 2 59 44
split_gain=6.3634 8.25694 13.4279 6.87275 8.21885 5.7268 5.26163 5.77289 5.32272 5.24335 5.19548 5.5582 4.67436
threshold=0.2065599784255028 0.60202834010124218 0.58333334326744091 0.36051562428474432 0.58333334326744091 0.2876925021409989 0.22916666418313983 0.18226481229066852 0.33837999403476721 0.18750000000000003 0.94273880124092113 0.18159867078065875 0.11902380362153055
decision_type=2 2 2 2 2 2 2 2 2 2 2 2 2
left_child=1 2 9 4 -3 -5 10 -8 -9 -1 11 -2 -4
right_child=6 3 12 5 -6 -7 7 8 -10 -11 -12 -13 -14
leaf_value=-0.019589459640496795 -0.014742810765428209 0.015119769298161501 -0.001760407866059858 0.0035635927985427007 -0.013468019316216094 -0.014023013737060675 -0.026132982524853434 -0.0089742205322387338 0.026934092569938534 0.010172810918062101 0.045328738387811054 0.023066297397014712 0.036472913135304444
leaf_weight=10.921428844332697 4.3879868686199215 24.658072043210268 3.4709264077246216 21.266882471740246 13.058727271854876 70.539801742881536 4.5777673944830921 6.4599880129098874 6.6886454746127129 8.7802334874868375 5.1744523085653773 9.6656196489930135 13.639969579875467
leaf_count=48 20 126 17 104 58 339 21 28 30 38 24 50 87
internal_value=0.000526872 -0.00199122 0.0103682 -0.00555649 0.00512958 -0.0099546 0.0116149 -0.000300356 0.00990478 -0.00647493 0.0220714 0.0110659 0.0290484
internal_weight=203.291 166.336 36.8126 129.523 37.7168 91.8067 36.9545 17.7264 13.1486 19.7017 19.2281 14.0536 17.1109
internal_count=990 817 190 627 184 443 173 79 58 86 94 70 104
is_linear=0
shrinkage=0.03


Tree=86
num_leaves=9
num_cat=0
split_feature=47 125 46 42 9 63 132 42
split_gain=8.2065 6.46991 7.79759 7.29032 7.61951 6.3699 5.80959 1.56165
threshold=0.13118833303451541 0.59914100170135509 0.22820623219013217 0.45825754106044775 0.5991666615009309 0.36398334801197058 0.58333334326744091 0.36886443197727209
decision_type=2 2 2 2 2 2 2 2
left_child=1 2 7 5 -5 -3 -4 -1
right_child=-2 3 6 4 -6 -7 -8 -9
leaf_value=0.0087502019519384664 0.038094588664726883 0.0046742815271059715 -0.0081663056178099391 -0.0073744629058093833 0.021331560662633621 -0.0097088471537455714 0.018706233057448052 0.040841877684055158
leaf_weight=2.4465521909296495 4.3539784364402285 39.077781617641449 16.261660076677799 13.025893956422804 20.221054594963789 90.280514348298311 11.513669095933439 6.7786989249289036
leaf_count=14 25 182 72 62 100 434 68 41
internal_value=0.00144069 0.000455248 0.0116044 -0.00213715 0.0101978 -0.00536133 0.00323609 0.0340192
internal_weight=203.96 199.606 37.0006 162.605 33.2469 129.358 27.7753 9.22525
internal_count=998 973 195 778 162 616 140 55
is_linear=0
shrinkage=0.03


Tree=87
num_leaves=13
num_cat=0
split_feature=42 2 126 36 55 11 47 31 27 15 36 68
split_gain=8.26594 6.18013 6.28904 6.79856 6.07021 10.3499 5.31718 4.5523 4.36006 3.41115 5.18614 4.51787
threshold=0.45765081048011785 0.91926971077919017 0.48933805525302893 0.28074795007705694 0.020926107652485374 0.021041666157543663 0.10330076888203622 0.8166666328907014 0.098857689648866667 0.096203703433275237 0.35833300650119787 0.33349999785423284
decision_type=2 2 2 2 2 2 2 2 2 2 2 2
left_child=1 4 6 -4 7 -6 -3 -1 9 11 -11 -2
right_child=8 2 3 -5 5 -7 -8 -9 -10 10 -12 -13
leaf_value=0.024451474894946951 0.016427928934058957 0.003606693421254633 0.016800554678475074 -0.0088158013386614789 0.024528493361733298 -0.025390884379250998 0.025147438354529501 -0.007495942198295337 -0.011508638171761683 0.0087779044524159047 0.036302371519975438 -0.017648142923590536
leaf_weight=5.1951605528593054 7.9720417633652669 37.142509464174509 10.351845305413006 52.123557765036821 3.5243376344442394 26.039040125906467 13.51421184837818 10.516928695142267 5.0856485106050959 13.493891775608065 11.83245477452874 4.7670369781553745
leaf_count=25 44 181 67 242 16 127 61 51 27 59 59 25
internal_value=0.00139805 -0.00179079 0.001971 -0.0043735 -0.01103 -0.018832 0.00972891 0.00389841 0.0128797 0.0163492 0.0225278 0.00332006
internal_weight=201.559 158.408 113.132 62.4754 45.2755 29.5634 50.6567 15.7121 43.1511 38.0654 25.3263 12.7391
internal_count=984 770 551 309 219 143 242 76 214 187 118 69
is_linear=0
shrinkage=0.03


Tree=88
num_leaves=10
num_cat=0
split_feature=36 125 48 30 38 25 29 10 1
split_gain=6.93308 8.10129 7.57733 6.39208 7.61278 6.8824 4.76873 3.45927 3.23302
threshold=0.41340368986129766 0.56494668126106273 0.16519303619861606 0.099636882543563857 0.37996704876422888 0.029166667722165588 0.24166666716337207 0.079315476119518294 0.58611103892326366
decision_type=2 2 2 2 2 2 2 2 2
left_child=1 2 8 5 -5 -3 -4 -2 -1
right_child=7 3 6 4 -6 -7 -8 -9 -10
leaf_value=0.012168830828795506 0.031547653154346669 -0.0088660521440694622 0.039374177409621243 -0.0076547995295689376 0.0096279197689775227 0.035779361733172463 0.00130276362154917 -0.0022193917536324852 -0.018202735948433496
leaf_weight=5.0823428519070166 8.3226492181420308 4.7416334599256498 9.7306632176041585 133.06652089580894 26.780936270952225 6.5118245929479599 4.1864657253026953 3.6847531497478476 5.6212125904858112
leaf_count=28 90 20 54 605 118 28 26 25 28
internal_value=0.000601507 -0.000803971 0.0149394 -0.00314302 -0.00471739 0.0177797 0.0287768 0.0218115 -0.00397394
internal_weight=207.729 195.722 24.6207 171.101 159.847 11.2535 13.9171 12.0074 10.7036
internal_count=1022 907 136 771 723 48 80 115 56
is_linear=0
shrinkage=0.03


Tree=89
num_leaves=10
num_cat=0
split_feature=102 34 26 37 60 132 59 3 35
split_gain=4.77295 5.1374 7.70144 7.48134 9.67667 7.1851 5.70288 3.60851 0.377875
threshold=0.87500000000000011 0.071550231426954283 0.16960801929235461 0.37996704876422888 0.099320046603679671 0.58333334326744091 0.1650083810091019 0.15312500298023227 0.016088468022644523
decision_type=2 2 2 2 2 2 2 2 2
